{"layers":[{"out_depth":1,"out_sx":24,"out_sy":24,"layer_type":"input"},{"sx":5,"sy":5,"stride":1,"in_depth":1,"out_depth":8,"out_sx":24,"out_sy":24,"layer_type":"conv","l1_decay_mul":0,"l2_decay_mul":1,"pad":2,"filters":[{"sx":5,"sy":5,"depth":1,"w":{"0":0.13806946314783863,"1":0.032541361957717264,"2":0.14967836347433788,"3":-0.030308770895497193,"4":-0.19411685872403886,"5":-0.36237132473675115,"6":-0.20748503764780216,"7":-0.31131913812777967,"8":-0.05894357496907423,"9":-0.7520391751408078,"10":-0.10574606228215937,"11":-0.03951046382244257,"12":0.43020543337924605,"13":0.15725101946230546,"14":0.3308621293385674,"15":-0.0738407439908332,"16":0.221112196289323,"17":0.753047812828275,"18":0.5095200541158583,"19":0.24149905777523784,"20":0.46954037781679636,"21":0.1048594324219045,"22":-0.16657252804920608,"23":-0.4703494165503424,"24":0.25328417994333674}},{"sx":5,"sy":5,"depth":1,"w":{"0":-0.07270733455609109,"1":0.03384221990616319,"2":0.08013276715836502,"3":0.3674694945971333,"4":0.8736365441779498,"5":0.08907403621149464,"6":0.2905768642872301,"7":0.21042527408767572,"8":-0.08750996671476519,"9":0.3010965099839114,"10":0.2091778036699799,"11":0.3929544287426764,"12":-0.0010606954507694345,"13":0.05968592464949173,"14":-0.2006888015133639,"15":-0.052801241772723904,"16":-0.1833818842494359,"17":-0.21606929120721763,"18":-0.2208463328990363,"19":-0.3248942004318278,"20":0.276593389968677,"21":-0.27084898606302155,"22":-0.5299161728053138,"23":-0.09850301028054388,"24":-0.3683717338607659}},{"sx":5,"sy":5,"depth":1,"w":{"0":-0.07539014514377518,"1":0.24002187838986913,"2":0.20353595991977994,"3":0.10388895282583673,"4":0.36763458258328086,"5":-0.33857151367181637,"6":-0.245366239093479,"7":0.521925408812807,"8":0.3796479717733177,"9":-0.660423411980263,"10":-0.1475595408285006,"11":0.23923855667737345,"12":0.49242889756058017,"13":0.3636919839907822,"14":0.22852789752647146,"15":-0.05216476247407028,"16":0.3801618954399957,"17":0.27572691951779404,"18":-0.17359337412007936,"19":-0.6143879993009631,"20":0.08749030185563425,"21":0.07773670580427644,"22":0.5798043230485117,"23":-0.06290018873110931,"24":-0.12430973801703016}},{"sx":5,"sy":5,"depth":1,"w":{"0":0.3848614277422643,"1":0.03995878318161696,"2":0.15610234921423766,"3":-0.6754671579368454,"4":-0.3501947042450161,"5":0.14484095451288673,"6":0.1673994019350149,"7":0.17955070562075084,"8":0.5628162653099584,"9":0.09353375926086899,"10":0.0272725815641084,"11":-0.036877232683427394,"12":-0.028176310428942166,"13":-0.00542463289744397,"14":-0.1882350217234089,"15":-0.14676209826068992,"16":0.24787042106032386,"17":-0.16180975798823552,"18":0.1499570694539864,"19":0.15764602269190411,"20":-0.2928816400107326,"21":-0.2640922614952183,"22":0.000944294950096649,"23":-0.18881218345015813,"24":-0.1688440877065302}},{"sx":5,"sy":5,"depth":1,"w":{"0":0.3259752496235245,"1":0.381352812788824,"2":0.39727314038689143,"3":0.6019910331841678,"4":0.4825066711975915,"5":0.1221349180782781,"6":-0.040486440423057955,"7":0.19720779750518133,"8":0.4329988442604928,"9":0.6867552019904147,"10":0.005946048735948676,"11":-0.17028872230217232,"12":-0.5527642855239587,"13":0.12345866167770546,"14":0.12236653730254475,"15":-0.3235097120295771,"16":-0.20950383328139568,"17":-0.4301769241073531,"18":-0.33260100233097384,"19":-0.19292696146938298,"20":-0.050479544490178184,"21":-0.20829946289656057,"22":-0.014831072412401468,"23":-0.20109132519116454,"24":0.010338782518913207}},{"sx":5,"sy":5,"depth":1,"w":{"0":0.05198658657250653,"1":0.5056809898035852,"2":0.10247095069306557,"3":-0.1058874557695588,"4":0.04038506699562312,"5":0.0951879264971899,"6":0.2893115456223121,"7":0.5965217460815874,"8":0.322023119269358,"9":-0.3547800198365993,"10":-0.2994328337409863,"11":0.004609881122048368,"12":0.24818044199623762,"13":0.7811932028803886,"14":0.04203973731923807,"15":-0.3211704425476943,"16":-0.07183696312878203,"17":0.07951928669592365,"18":0.4493458739555665,"19":0.5254256150080195,"20":-0.1327375000548637,"21":-0.6149998485626061,"22":0.10094017384536584,"23":0.19615992557520964,"24":0.3992934900738725}},{"sx":5,"sy":5,"depth":1,"w":{"0":-0.010470341654239013,"1":0.05073882235573946,"2":0.42019733162177086,"3":0.3394481071531611,"4":0.09963946427970674,"5":-0.4979987437048374,"6":0.415318237697838,"7":0.43508918807618485,"8":0.06066207727462884,"9":-0.2691899853472579,"10":0.09257818698996662,"11":0.6938656856591104,"12":0.19225301939662107,"13":0.04731071907510366,"14":-0.6043109914758886,"15":-0.04041710710489119,"16":0.1668571557311948,"17":0.3133192020109259,"18":-0.010543858116107665,"19":-0.3696568241708331,"20":0.043167243092167844,"21":0.2768129167534587,"22":0.21527117836379328,"23":0.3592797403509136,"24":0.04362127154233507}},{"sx":5,"sy":5,"depth":1,"w":{"0":0.21317079715092643,"1":0.021760993420130426,"2":0.21686248593985588,"3":-0.016052376041552307,"4":0.2744961679774282,"5":0.14127783676771338,"6":0.2727364591752661,"7":-0.13649935770647253,"8":0.07786476440543642,"9":-0.30370876825646714,"10":-0.25413829851866754,"11":-0.1349372702224974,"12":0.004504799634963354,"13":0.17183901279229424,"14":-0.05975931993335392,"15":0.025855653295073146,"16":-0.0841465735355372,"17":-0.3999140703884622,"18":-0.1220071141378825,"19":0.11669249848389793,"20":-0.21701206600531847,"21":-0.1482581181824647,"22":-0.034463527850146676,"23":-0.4867955936826079,"24":-0.04416682284543677}}],"biases":{"sx":1,"sy":1,"depth":8,"w":{"0":0.27280999707568154,"1":0.1151501064017834,"2":0.15327152295806498,"3":0.10522605867481126,"4":0.23095166048201987,"5":0.23405109884529599,"6":0.18219069372208227,"7":0.04530236038595226}}},{"out_depth":8,"out_sx":24,"out_sy":24,"layer_type":"relu"},{"sx":2,"sy":2,"stride":2,"in_depth":8,"out_depth":8,"out_sx":12,"out_sy":12,"layer_type":"pool","pad":0},{"sx":5,"sy":5,"stride":1,"in_depth":8,"out_depth":16,"out_sx":12,"out_sy":12,"layer_type":"conv","l1_decay_mul":0,"l2_decay_mul":1,"pad":2,"filters":[{"sx":5,"sy":5,"depth":8,"w":{"0":0.05168563880492349,"1":0.16916038183241988,"2":-0.0012261670715602484,"3":0.07185616451653332,"4":0.18153864155201532,"5":0.011805282477200647,"6":0.05595434289565932,"7":0.06392364386768636,"8":-0.118619297952197,"9":-0.1320320681391153,"10":-0.1893472510459196,"11":0.038014767124287065,"12":0.09459059730621638,"13":0.16539661833875569,"14":-0.12049603712453436,"15":0.11721679234876181,"16":0.033362061521319,"17":-0.08912566939275168,"18":0.060049716683444485,"19":0.08921929598720228,"20":-0.08988687461159904,"21":0.25907386035947755,"22":0.10527407659687088,"23":-0.07281049043905398,"24":-0.14915405445093913,"25":0.02363428607606787,"26":-0.06908162333467234,"27":-0.057007420816594066,"28":0.07670529374712773,"29":-0.016874301921740165,"30":-0.0723764552682187,"31":-0.13442784963809917,"32":-0.05253382511193515,"33":0.049201808323496424,"34":0.03290806530957331,"35":0.05749689923298661,"36":0.12182872277811285,"37":-0.043000928881276074,"38":-0.011042856996351606,"39":-0.0915612881577467,"40":0.006416872244700981,"41":-0.0015005840078830953,"42":-0.1029985473358677,"43":0.08178280731573205,"44":0.03699124281176922,"45":0.058659486335125126,"46":-0.13344576261062904,"47":0.17631633696118587,"48":-0.03876373319339918,"49":0.04625354662187642,"50":-0.0035319062337043267,"51":-0.03612489347494117,"52":0.14637658752364097,"53":0.10331915654277667,"54":0.012925609470075141,"55":0.03667806184858625,"56":0.1296191112325572,"57":0.04208265173033392,"58":0.010509529883065413,"59":-0.060134562332477284,"60":-0.07751995970709019,"61":0.3110308994243645,"62":0.01678293584841422,"63":-0.050588333327861924,"64":0.04600828594058595,"65":0.055740943390992045,"66":0.05633726567597046,"67":0.12391644692948288,"68":-0.056605987542202675,"69":0.24658806100365321,"70":0.06887679625593703,"71":-0.10681963476976958,"72":0.18872422093658975,"73":-0.024126705717437275,"74":0.0729186642179474,"75":-0.04295485468356922,"76":-0.0011759644790432548,"77":0.052653650108690664,"78":-0.09889568683056403,"79":-0.037840449599416494,"80":0.07423645915627186,"81":-0.17602484891345507,"82":0.009466052323586324,"83":-0.02058355812808756,"84":-0.12890283564225988,"85":-0.07122061347676786,"86":-0.15060189785140393,"87":0.0015458098767485735,"88":0.03814057100749068,"89":0.10018890282785273,"90":-0.019640573385536073,"91":-0.14951051531184106,"92":-0.052935446514709994,"93":-0.17140977637879107,"94":-0.04299972278175355,"95":-0.07138043552240295,"96":0.008442983520419936,"97":0.07998081988336372,"98":-0.05085876341298798,"99":-0.04787352532075069,"100":0.20055767214925582,"101":0.1077816173231278,"102":-0.06496004973121834,"103":-0.027925914058658657,"104":0.035179518489184027,"105":0.0023881461046437744,"106":-0.08777136684671882,"107":0.12555158756676413,"108":0.14654576670111233,"109":0.19131261019223444,"110":-0.04463841556275159,"111":0.010663936226570926,"112":0.18981080502712688,"113":0.08724058573454022,"114":-0.05818273048979345,"115":0.09092078561132473,"116":0.2056055904955918,"117":0.02792796685880094,"118":-0.12572781716277445,"119":-0.03171678169619263,"120":0.21823515306017666,"121":-0.18037354390193394,"122":-0.10262455894989723,"123":-0.06527459953371693,"124":-0.07061983910844633,"125":0.031621136336391034,"126":-0.007011100377470152,"127":-0.044611009876344074,"128":-0.035915053995937744,"129":-0.005612416192641351,"130":-0.04147828199190147,"131":-0.023479361834772765,"132":-0.1027094562737885,"133":-0.000177867637419525,"134":-0.07957249655820213,"135":-0.04299501606806429,"136":-0.02679174987878063,"137":-0.07896275815182893,"138":-0.075517187049121,"139":-0.0641567676509732,"140":0.13768327645221515,"141":-0.08455477188121169,"142":-0.10967667112799127,"143":-0.07707347028025717,"144":0.02597907168010943,"145":0.02295454072690906,"146":-0.09675776790735173,"147":0.05716969015980638,"148":0.05458823984295796,"149":-0.12297330098066275,"150":-0.18328444414681969,"151":-0.04343914109486881,"152":0.0667540196191485,"153":-0.0915829010980711,"154":0.006832148419446819,"155":-0.050913833301732284,"156":-0.1050999934638202,"157":-0.11065352664711156,"158":-0.032725620058944714,"159":-0.05108459403955992,"160":-0.013685565529599795,"161":0.06570109917511742,"162":0.039302728543674205,"163":0.18713572492071565,"164":0.14343232591359908,"165":0.1310120483637135,"166":0.13505334721584458,"167":0.03913876043687208,"168":0.05954597654936408,"169":-0.0365584043292035,"170":-0.024127896114732882,"171":-0.03774874868481724,"172":-0.08987426157668017,"173":0.027663129646590217,"174":0.08077511531409319,"175":0.11451671535954641,"176":-0.032166420156706774,"177":-0.11002044767927197,"178":-0.12213228174567094,"179":-0.26324217311021847,"180":0.10158375022005076,"181":0.05310556117836613,"182":-0.19474501647874337,"183":-0.07210323756199309,"184":0.028750771182476598,"185":-0.02886297447631889,"186":-0.01736703324422295,"187":-0.04936325890376729,"188":-0.24675411538609593,"189":-0.157212344313795,"190":-0.06025790118956126,"191":-0.15955854838327246,"192":0.036966857007607413,"193":0.2234825977722939,"194":0.006948359640875124,"195":-0.07916847262845464,"196":-0.005554280650121695,"197":-0.13259384137266128,"198":0.17169052750708086,"199":-0.06765629675222437}},{"sx":5,"sy":5,"depth":8,"w":{"0":-0.35174090278957443,"1":0.03120009678983695,"2":-0.10374482862105847,"3":0.09851345149385483,"4":0.008931328559417865,"5":0.028915434884007392,"6":-0.07822878342041831,"7":0.03486807113593976,"8":-0.21348221657884778,"9":0.03208578253734784,"10":-0.13343627120721072,"11":-0.10016225254677956,"12":0.11169683682467568,"13":-0.05464389068325666,"14":-0.11141706823486061,"15":0.024267761719198207,"16":-0.10136662054301987,"17":0.015306818539472942,"18":-0.11743714068297995,"19":-0.05156322327278708,"20":-0.01627249118047393,"21":0.0034871097705161,"22":0.07479293604759721,"23":0.06558738958391978,"24":0.008611889708059173,"25":-0.03691131783483222,"26":-0.06783087499545448,"27":0.11683665540759498,"28":-0.012107330748117054,"29":-0.01315607838040462,"30":-0.04589808977256965,"31":-0.07615008407427952,"32":-0.27852279347995235,"33":-0.047890592740740194,"34":-0.1017770217180042,"35":0.02045695083939791,"36":0.021757346068657316,"37":-0.16642003056579865,"38":-0.1502946653340794,"39":0.09132336508982744,"40":0.006296934253375918,"41":-0.11086051582610863,"42":-0.13233069814050924,"43":0.04500306661607006,"44":-0.11418477068596569,"45":-0.1178043143136786,"46":-0.2521595374540631,"47":-0.019955632557650645,"48":-0.10379398863515793,"49":-0.04710975838176922,"50":-0.06349699255053991,"51":-0.18966167369374531,"52":-0.16743395418731613,"53":0.07123740193094792,"54":-0.1054949895758246,"55":0.06413677327947775,"56":-0.02429452478244534,"57":-0.17307128716251446,"58":0.08923851236696247,"59":-0.08467557377248729,"60":-0.055061654536700914,"61":0.011006272559221143,"62":0.07921683000143381,"63":0.0029036954632045164,"64":-0.10326193053261143,"65":-0.07072553047520042,"66":-0.07161753076652698,"67":-0.080456827760383,"68":-0.21755369259167034,"69":-0.11599172227351433,"70":-0.07566577671165627,"71":0.009280187760771837,"72":-0.05106886199208965,"73":-0.05017063522998291,"74":-0.08636444717307237,"75":-0.10554707756126071,"76":-0.006706069816489353,"77":-0.005874924901513716,"78":-0.15192774035857476,"79":-0.0014184897784367168,"80":0.3211169377718567,"81":-0.05958296357322543,"82":0.03701278306020838,"83":-0.12267246124200396,"84":-0.1930595488951585,"85":-0.041900698058722444,"86":-0.06275918894110889,"87":-0.04447098685740981,"88":0.04359067088519259,"89":-0.15810561712866544,"90":-0.04784684871011154,"91":-0.06576900147057023,"92":-0.16236066516856706,"93":-0.04887237111984072,"94":-0.039378407114226896,"95":-0.065152511370278,"96":0.23716499986206455,"97":-0.15514017395217022,"98":-0.04995097259283477,"99":-0.10997460421653671,"100":-0.008449615325191184,"101":0.21808387631826381,"102":-0.07370629440152657,"103":-0.12216348211547018,"104":0.19132152759950707,"105":-0.10248949199398397,"106":-0.12536118789317685,"107":-0.19987818124543394,"108":-0.06937219878428445,"109":0.11554148217375385,"110":0.06778499644934728,"111":-0.2160969250366769,"112":0.00327024335555542,"113":-0.10235701264356463,"114":-0.061649185864066564,"115":-0.22219811806052553,"116":-0.13497834415948684,"117":-0.143244686952797,"118":-0.10225114109516587,"119":-0.04666919424991439,"120":0.2016689720391139,"121":0.09055506190967953,"122":-0.15524190414946037,"123":0.08975798653934972,"124":0.09457207912051126,"125":0.16413644101926939,"126":-0.0010452361639625004,"127":-0.0353340542040699,"128":0.15484670429513528,"129":-0.005801207738437813,"130":0.10588587073843254,"131":0.022940790838802495,"132":-0.1475515209520675,"133":0.022377231137460728,"134":-0.035396793693504264,"135":-0.06359976045143778,"136":0.06264592512796678,"137":0.11189741536401641,"138":0.06973559904169241,"139":-0.09118969548576884,"140":0.0369685636851111,"141":0.02095782634194551,"142":-0.11060416901691994,"143":-0.2706951477586828,"144":0.18327812717543437,"145":-0.060090489983147685,"146":-0.11609561363641883,"147":-0.07578686078614896,"148":0.119054342553058,"149":0.2825154422817513,"150":0.03659599121456855,"151":-0.18031913245493159,"152":0.08235157649445198,"153":-0.0897024200351659,"154":-0.040905175632925075,"155":-0.048931414225276464,"156":-0.06999514618040667,"157":0.2086975833775453,"158":-0.12378156897206909,"159":-0.044808732154195854,"160":0.07567747319844123,"161":-0.043310645015057804,"162":0.2095397769660211,"163":0.031740146404480786,"164":0.32275334753561236,"165":0.17243310224903113,"166":0.0466022337646348,"167":-0.0023570566411699034,"168":0.2532092315830307,"169":-0.02970190058150293,"170":0.1958989318160299,"171":-0.0004735247682103275,"172":0.11554967720776158,"173":0.2836867313612631,"174":0.1356119629698333,"175":-0.08906604563153502,"176":-0.07402595178811354,"177":-0.01715896288979227,"178":0.13413464420207802,"179":-0.09911285112256606,"180":0.07067352038459855,"181":0.17590135436975834,"182":0.09385896915141478,"183":-0.07777489805329943,"184":0.08966871096335464,"185":-0.012744164880615881,"186":-0.03927928719121687,"187":0.008445850698512367,"188":0.1847007828370142,"189":0.09096840960244981,"190":0.16625566328997146,"191":-0.032363445987456024,"192":-0.07183946583641299,"193":-0.055247050263404145,"194":0.03698626276945213,"195":-0.12118617421031239,"196":0.22549302208727107,"197":0.033217371588919846,"198":0.04754843496928578,"199":-0.049992747680758835}},{"sx":5,"sy":5,"depth":8,"w":{"0":0.12038793191531195,"1":0.15560392032742087,"2":0.1424059488356463,"3":0.04309372294104907,"4":0.05978169636575917,"5":-0.0021327147346974517,"6":0.04000396506495224,"7":0.04011122445848051,"8":-0.02054201541277183,"9":0.0021258700377240368,"10":0.022491421902602744,"11":0.05444118018968973,"12":0.18483810140862383,"13":0.03922351591648706,"14":0.0220104813262095,"15":-0.04737150344319231,"16":0.15067023127753634,"17":0.0036818039334817476,"18":0.06883914830430599,"19":-0.024912479308091005,"20":0.13997064704837772,"21":0.11353066179234003,"22":-0.14686230246134066,"23":-0.05627790539030871,"24":0.2983360496904397,"25":0.05608025003691054,"26":-0.1083974508067449,"27":0.07700418511340085,"28":0.1651733787143536,"29":0.03266543318843485,"30":-0.16612311729710394,"31":0.03419742509879637,"32":0.03021795996840385,"33":-0.09080584858437152,"34":-0.12119055322651098,"35":0.08757789351975963,"36":0.026916367039436437,"37":0.08310875155636817,"38":-0.03635348710154983,"39":-0.11920262090579978,"40":0.05478126067678448,"41":-0.0141137934488694,"42":0.09504412488912728,"43":-0.038529689319288345,"44":-0.009045875070858007,"45":-0.038412497812407236,"46":-0.10186173331061676,"47":0.05228723399267832,"48":0.21683119990017546,"49":0.08128580063172058,"50":0.01018194393619232,"51":-0.019408131238894285,"52":0.18612601241587984,"53":0.027050185854527654,"54":0.02675358882028919,"55":0.04652527283951809,"56":0.06391175109210519,"57":0.0372220647278143,"58":0.040672502927999246,"59":-0.1844045358687264,"60":0.06203764352104852,"61":-0.0852449375218734,"62":0.07236156546401333,"63":0.033497094831589594,"64":-0.07440417336437048,"65":0.15248746995169707,"66":-0.18991543500728456,"67":-0.015553980589391331,"68":0.23919241249672749,"69":0.03503403763734348,"70":-0.002930744604021039,"71":-0.03607741727961189,"72":-0.05263541237091996,"73":0.09446323690569487,"74":-0.08542508876532998,"75":-0.030184441807257222,"76":0.2854986320811892,"77":0.07455527058662703,"78":-0.07053616562571481,"79":0.07790678770193306,"80":0.04550965617615269,"81":0.03960133143824147,"82":-0.07223583088861349,"83":0.039657234953355984,"84":-0.21320492485996934,"85":-0.017900192737448018,"86":-0.0031921047862210807,"87":-0.08545798330084474,"88":0.12970410107445626,"89":0.24318159741254264,"90":0.07074063748628914,"91":-0.21654828606247406,"92":-0.07235297228412041,"93":-0.10184691329167139,"94":-0.08168680685781514,"95":-0.054193912687412235,"96":-0.14145386684266384,"97":0.3075703570709635,"98":-0.07282017396707861,"99":-0.01382163353509934,"100":0.03551382707074545,"101":-0.0970078284449989,"102":0.04601015719250781,"103":-0.0018004022319535401,"104":0.019562167055981523,"105":0.06488717603350991,"106":-0.10861420579800202,"107":0.0648355796411023,"108":0.0349355585026192,"109":-0.04642589536479578,"110":-0.12676756532041816,"111":0.06620158521885748,"112":0.071160655422663,"113":-0.004598010517512293,"114":-0.10763721267786151,"115":0.021405766933786898,"116":0.03983163628910076,"117":-0.036252499757884554,"118":-0.09621088486727665,"119":-0.0517328088023125,"120":-0.11995493154769561,"121":0.04275714043819535,"122":-0.00931517340434892,"123":0.07949379267439444,"124":0.0035522590754765515,"125":0.1002928323450638,"126":0.008407139640095982,"127":-0.08901336795392643,"128":-0.1332296167675452,"129":-0.08685207061167878,"130":-0.1458863595613321,"131":0.17388920935705982,"132":-0.08844534070916142,"133":-0.004791513418083346,"134":0.0318838280443177,"135":0.16589750249358387,"136":0.07123093450922915,"137":-0.08323173638724525,"138":-0.04529545024824155,"139":-0.006009868121200763,"140":-0.05454605045180376,"141":-0.03524229699766699,"142":-0.1787324708393593,"143":-0.03517337877240009,"144":0.13389373261689888,"145":0.01232695593115551,"146":-0.013684417132698802,"147":-0.13447162765623935,"148":-0.091099199470015,"149":0.03665400945438191,"150":-0.019727208379748052,"151":-0.03489113520182644,"152":0.0022260834289061127,"153":0.03111698073616743,"154":0.05296489831178538,"155":-0.09978443848505411,"156":0.06128992709685881,"157":-0.13553929956016625,"158":0.10378502157796123,"159":-0.16151791431253085,"160":-0.006735085348563919,"161":-0.13829989888439229,"162":-0.001749567886665475,"163":-0.012128367688682336,"164":0.029448311018932014,"165":-0.01712818720220461,"166":-0.057857690422445034,"167":0.001871331418960999,"168":0.1417358326476541,"169":-0.0916515029937009,"170":-0.015206411461540769,"171":0.018854592974111038,"172":0.030217961372215118,"173":-0.07110715488319581,"174":-0.016618243422160114,"175":-0.06377795430562958,"176":0.05643569790808417,"177":-0.015142334729106225,"178":0.00241503525410108,"179":-0.018544826145596504,"180":0.05598916394441427,"181":-0.07459207506549678,"182":-0.10541867334351569,"183":-0.17649769491762035,"184":-0.06320186461013849,"185":-0.1257953185145702,"186":-0.0053345882265714,"187":0.03394350931517504,"188":-0.01973090891672468,"189":0.13805008306441321,"190":-0.04905422633894738,"191":0.02950046336256126,"192":-0.11767491436383233,"193":-0.0022426403745365074,"194":-0.04380489173183031,"195":-0.04063292625583249,"196":0.012207135063501514,"197":0.019268707853848606,"198":-0.09323212332409268,"199":-0.1227671805305727}},{"sx":5,"sy":5,"depth":8,"w":{"0":0.2640924917951498,"1":0.10671097172429549,"2":-0.0585684049173979,"3":0.03328938701363645,"4":-0.030327608871353166,"5":-0.22484444735547404,"6":-0.04937998331711943,"7":-0.028880357567298176,"8":0.11262835513549671,"9":-0.20045694970250258,"10":-0.043261985735293156,"11":-0.02425405303331933,"12":-0.02395106634704681,"13":0.09860299794382978,"14":0.13634720648996074,"15":0.08020482467105837,"16":-0.004062272577772875,"17":0.013739561514705621,"18":-0.09932068050167939,"19":-0.0001723619550051676,"20":-0.07739010490958291,"21":-0.1564104683301183,"22":0.12343171975548498,"23":-0.022229298391499768,"24":-0.05040468157920403,"25":0.0268363917583053,"26":-0.06585969578092846,"27":0.020180838978181966,"28":0.05908804468850532,"29":-0.19768960433581734,"30":-0.00819732162492897,"31":-0.05566098740959874,"32":-0.06807661528050467,"33":-0.058066835244624575,"34":0.029336570619505103,"35":0.10814349535358521,"36":-0.024893496101645558,"37":-0.12139700631450433,"38":-0.06253481135312372,"39":-0.010488205620065912,"40":0.16622547909985927,"41":-0.0049929755672581495,"42":0.019493919318846753,"43":-0.0024228858390090754,"44":-0.009068551847471563,"45":-0.027897800075630322,"46":0.08441836937159627,"47":-0.15616175909748425,"48":-0.007039646839605309,"49":-0.1281474655268252,"50":0.025544068022523556,"51":-0.06279145835403101,"52":0.12641426609885215,"53":0.12041999496000455,"54":-0.01544638555157927,"55":-0.014180321771638067,"56":0.2856161934556583,"57":-0.05463903911136787,"58":0.14431885051684867,"59":0.04472631057493916,"60":-0.05506756711598905,"61":0.10742697679613655,"62":0.006180391747103444,"63":-0.1635608903304252,"64":0.19851888683627783,"65":-0.19978263823217204,"66":0.03940938857580041,"67":0.01338179473508223,"68":-0.11397027571576938,"69":-0.015138806463401093,"70":0.11452423066551994,"71":-0.08248721712953443,"72":0.2346680472489989,"73":-0.11893739578827137,"74":-0.09665382850156201,"75":-0.06568752665810093,"76":-0.08504058932486991,"77":-0.12694264039214437,"78":0.010012879035654045,"79":-0.09881251243937443,"80":0.14230437597883555,"81":0.05283753651896274,"82":-0.06274616406466724,"83":-0.0015125905436779922,"84":-0.08326014407600893,"85":0.023267448325427605,"86":0.12651370708636395,"87":-0.14559674722652344,"88":0.11727454043982218,"89":0.11257069822072091,"90":0.045527919251266355,"91":-0.06655633031373846,"92":0.07747383415492777,"93":-0.047891852671539566,"94":0.03143185113242316,"95":-0.05992284518459527,"96":0.11213608275423298,"97":0.0833291889402553,"98":-0.07918785380633622,"99":0.16579453755064275,"100":-0.02782084454383188,"101":-0.020818327720872398,"102":0.0630936554078629,"103":-0.0756873968212825,"104":0.07341114232895497,"105":0.04971574242852092,"106":-0.13620770442564792,"107":0.10858130545826432,"108":0.09509732181787883,"109":0.15317872828623852,"110":-0.018237829627164408,"111":-0.0042813447740031605,"112":0.1367685288364306,"113":0.10884916427746469,"114":0.11276010695644534,"115":0.16805262674276802,"116":0.2784993826172809,"117":0.12057727361003531,"118":-0.07866398510032148,"119":0.0468828391501669,"120":0.005123109392576692,"121":0.022914109269786286,"122":-0.006657959863007981,"123":-0.02218278941234491,"124":0.16899305569837117,"125":-0.0020498981212167923,"126":0.0026261743501546178,"127":-0.009833899882858299,"128":-0.11310227366789051,"129":-0.057675252171378866,"130":-0.03921930300823134,"131":0.04591161144033398,"132":0.12000827870634011,"133":-0.16233560052398174,"134":-0.11153987946434286,"135":-0.03131715309289677,"136":-0.1143739566885057,"137":0.03345177363234784,"138":-0.07181213019349651,"139":0.09970354230445422,"140":0.1410925063562034,"141":-0.12385457223894966,"142":0.0722585849449924,"143":0.11779863923348532,"144":-0.008764762382774216,"145":-0.00327702146592977,"146":-0.1488109997157037,"147":-0.14915105461887418,"148":0.10363001135845096,"149":0.04508375489768025,"150":-0.21585087716682969,"151":0.12055171500567187,"152":0.048844818326095586,"153":0.026720718977530266,"154":0.10525773939760086,"155":-0.06375237462400604,"156":0.08784704723729023,"157":0.03526870293009862,"158":-0.0388001859602656,"159":-0.06831771354651105,"160":-0.17954410349214692,"161":0.10238352622728644,"162":-0.1023807087274419,"163":0.021549916073358367,"164":0.06438561481768569,"165":-0.024778938132676013,"166":-0.040185806115197,"167":-0.02039903256611278,"168":-0.11842077344448983,"169":0.07724008573097002,"170":-0.07744049138070712,"171":-0.04034807628914378,"172":-0.014809983674636757,"173":0.10156125415715571,"174":0.11019325025427283,"175":0.030273920648948485,"176":-0.05062255510676498,"177":-0.12285854239840927,"178":-0.11512168254431948,"179":-0.07445289255082403,"180":-0.13192304532571728,"181":0.0088873377045932,"182":0.046195769196344307,"183":-0.13970166240596968,"184":0.08583009847791151,"185":-0.07989998398456387,"186":0.11842121867895031,"187":-0.10437997896361463,"188":-0.13938659466827324,"189":0.09310375996750316,"190":-0.08070807708603249,"191":-0.10133154996799217,"192":0.04455030246668839,"193":0.05581382267107565,"194":-0.08248070656877551,"195":-0.06706235738592295,"196":0.0276579121286838,"197":-0.14361031748583908,"198":-0.02957995465820898,"199":-0.05068594626950848}},{"sx":5,"sy":5,"depth":8,"w":{"0":0.07242844295787293,"1":-0.017498342140036156,"2":-0.040745712951438876,"3":0.027691466785975796,"4":-0.0747475447904369,"5":-0.005304193754495367,"6":-0.05583933647567624,"7":-0.036322833854637575,"8":-0.028719969691725196,"9":-0.07006901296255715,"10":-0.06813420300545854,"11":0.07811447374133737,"12":-0.011699915795326855,"13":0.08333484632538662,"14":-0.02271214639066128,"15":0.00925396238331827,"16":-0.06566692139472997,"17":-0.13367721247775258,"18":-0.033265858507511854,"19":-0.026480559674555086,"20":-0.29864814835666864,"21":0.027177768572317556,"22":-0.03858401919726987,"23":-0.03920035602498562,"24":0.048231580812823964,"25":-0.11606799834248213,"26":-0.038020725261908805,"27":0.03705908682940045,"28":-0.1052000228367443,"29":0.08975528907102917,"30":-0.06549876172709315,"31":-0.13192435500454414,"32":0.1753475778039763,"33":-0.07518533328576116,"34":0.05836113219750578,"35":-0.0034647497634154876,"36":-0.13042040066756885,"37":-0.11707449927885787,"38":-0.020978599247261615,"39":-0.05627149810924901,"40":0.08434927888843081,"41":0.12214663655088168,"42":0.03471004410279248,"43":-0.04048964152448186,"44":0.029621937051002144,"45":-0.04585217374892042,"46":-0.09432925705531701,"47":0.04644895579167822,"48":-0.10030621167639815,"49":-0.08847124041408014,"50":0.004289857400490837,"51":-0.08092416230566835,"52":0.12613071441494542,"53":0.04336560160464209,"54":-0.16863937507978008,"55":-0.09680664282702493,"56":0.21224482586217133,"57":0.042000059601522095,"58":-0.08125339779290633,"59":0.09708095360157441,"60":0.017757040782602346,"61":0.022921214907688888,"62":-0.09679397176648888,"63":-0.1378203200452155,"64":-0.049207117074485864,"65":-0.04132800327944012,"66":0.07761135096305959,"67":-0.01727428145114839,"68":0.07828344051879804,"69":0.12051307358733297,"70":0.0426925345509882,"71":-0.03874861049652749,"72":-0.02343047810871594,"73":-0.0043486746312975935,"74":-0.04719307957244787,"75":-0.13653270304351453,"76":0.025687344555551894,"77":0.046007225969414395,"78":-0.018854988281451757,"79":-0.09430099020177922,"80":0.054775863820298816,"81":0.007798845225480825,"82":-0.08844758524215103,"83":-0.027827708732768186,"84":0.015039826360745644,"85":0.012604945991266861,"86":-0.13760091854215906,"87":-0.049778129436331066,"88":-0.043946765769749416,"89":0.07187116818365251,"90":0.01584856152263144,"91":-0.06272703593383411,"92":0.07720376506461182,"93":-0.008888504496277356,"94":-0.0034274741444562567,"95":0.020161236354493815,"96":0.02367439291418395,"97":0.026690944299601303,"98":0.14226954693864324,"99":-0.029772528925738548,"100":0.08896302379649021,"101":-0.1452743182780115,"102":0.13377360309676856,"103":-0.08594787284077547,"104":-0.039863504505275815,"105":-0.02835227291343716,"106":-0.07067349201222214,"107":-0.2268055738678479,"108":0.18679721702593807,"109":-0.018444292723351116,"110":-0.11533810313363871,"111":-0.03573753215715401,"112":0.09158611826676909,"113":-0.1308644033187619,"114":-0.12556410684408503,"115":-0.09072591368401449,"116":0.08051972531290233,"117":0.04427106348250364,"118":-0.03874644740175996,"119":-0.05292595854499787,"120":-0.0557216837804219,"121":0.05492392153795182,"122":-0.00022371634688442808,"123":-0.10664535903249064,"124":-0.0428837386522043,"125":0.005832969073263451,"126":0.07922636611144321,"127":0.025107567525420295,"128":-0.037693509835344585,"129":0.059134578702344766,"130":0.058606490923488526,"131":-0.12103260955426631,"132":-0.1435401599639887,"133":-0.02428586106734551,"134":0.07396464030816853,"135":-0.08344838375903,"136":0.1251379818363256,"137":0.05100005043619787,"138":-0.08377092615054793,"139":-0.17249549777458711,"140":-0.1027396445171152,"141":-0.09360532541880312,"142":-0.041819553943886915,"143":-0.10634188681350142,"144":0.06559060156971015,"145":-0.10736019540976753,"146":0.0621028720019185,"147":0.04069550727862589,"148":0.13223787783912125,"149":-0.06223068290981995,"150":-0.054785518142203164,"151":-0.10916017465828293,"152":-0.022024325064826714,"153":0.031687423653582285,"154":-0.02194502224050945,"155":-0.17629785203614054,"156":0.07037110014413112,"157":0.11620234167519929,"158":0.13292173092431336,"159":-0.0006017593104855313,"160":0.12752645115198472,"161":0.1352813839326913,"162":-0.0012425864625831276,"163":-0.11978714074103777,"164":0.03394887375349216,"165":0.05302879283976453,"166":0.07132129586916428,"167":0.1387207569686296,"168":0.28700489486512837,"169":-0.062165433114863694,"170":-0.06578198711412968,"171":0.02457603823578827,"172":-0.002775955715453657,"173":0.07694693170885464,"174":-0.026030210627316478,"175":-0.049556292393600654,"176":0.09733857264192146,"177":-0.0301344639571714,"178":0.12608948425319477,"179":-0.0631183786289698,"180":0.014719805921099473,"181":0.07752924148939763,"182":-0.08573886294774068,"183":-0.11841508835684621,"184":0.10924238885705241,"185":0.07637226674879219,"186":0.0009330635271615796,"187":0.012645648649248846,"188":-0.04458921619315051,"189":0.015946670117700137,"190":0.1336155506077258,"191":-0.01790715143051068,"192":-0.03531281715028974,"193":0.087530192843915,"194":-0.01037758468101006,"195":-0.020073972173510143,"196":0.18334304121131173,"197":0.11046996372086591,"198":0.1660711998488975,"199":-0.03979104532223476}},{"sx":5,"sy":5,"depth":8,"w":{"0":0.003049820788127814,"1":0.05940750187566731,"2":0.050481633901084386,"3":-0.17423928527942875,"4":-0.06024202964202389,"5":-0.24844408235766785,"6":0.10549527268319818,"7":0.13101855559039266,"8":0.06999410503388417,"9":0.12760448106890956,"10":-0.05260206832781805,"11":0.09742078725139547,"12":0.1291456037016869,"13":-0.1071977123069294,"14":-0.18184996136282866,"15":0.09907547316432679,"16":0.0984109394607377,"17":-0.015516957466610522,"18":-0.06895866114785298,"19":-0.024704607157215158,"20":0.012995853396107235,"21":0.054751280441754514,"22":0.001192577228089377,"23":0.03573004349888488,"24":0.05816138613936134,"25":-0.10436299915053031,"26":-0.08764854664554342,"27":0.025290476662511455,"28":-0.10147942524409821,"29":-0.08452736021765717,"30":0.0032231852057688533,"31":-0.07390720863012629,"32":-0.044350316455444024,"33":-0.10021301916475905,"34":-0.04051394085778996,"35":0.07135695532668983,"36":-0.17490242814028692,"37":-0.04640128823238155,"38":-0.09313950172384952,"39":-0.08462101979363029,"40":0.15734199884776254,"41":-0.12220769612916275,"42":0.09637937233085969,"43":-0.13339114342767497,"44":-0.1053527940271888,"45":0.15952953546506193,"46":0.2030304887774067,"47":0.016716670507803937,"48":0.18494584154090687,"49":0.013569251429537483,"50":0.059269824744039246,"51":-0.09851957579407015,"52":0.08045648243709118,"53":-0.07892191970704106,"54":0.05128358321520885,"55":-0.0065639387629676796,"56":0.22477730980133845,"57":-0.04847000452511738,"58":-0.036881599842662205,"59":-0.0437105807817012,"60":0.08880113155020386,"61":0.1674464913900027,"62":-0.09785520307719142,"63":-0.026563634806879673,"64":0.26117682855063423,"65":-0.1762414946189889,"66":0.1748938429394654,"67":0.06410024820033577,"68":0.015322190603531986,"69":0.05125814024374447,"70":0.029010698990558054,"71":-0.06593309545977684,"72":0.24566830610689955,"73":0.01754583099408206,"74":0.02578875887306585,"75":0.02200961120977586,"76":-0.1573498788906037,"77":-0.16804752375414725,"78":-0.14427033719024976,"79":0.018872092504411235,"80":0.208108445712429,"81":-0.00011291254881428282,"82":-0.09920279094414897,"83":-0.03365855597457689,"84":0.21045220742915685,"85":0.24907676778722238,"86":0.02496613215915017,"87":-0.026946678139723606,"88":0.25682733112574985,"89":0.047955142574424264,"90":-0.15623452386735046,"91":0.12150057582945731,"92":0.07051101113273207,"93":0.16941931776737268,"94":-0.06357018254802509,"95":-0.18776621394526358,"96":0.18578966802890093,"97":-0.005025591357763662,"98":0.05118149584492683,"99":0.15326554330628897,"100":0.00962150696489729,"101":0.0020301287445854527,"102":0.0425783195637747,"103":-0.04066665702232412,"104":0.1954622946650304,"105":0.06948453803385043,"106":0.08066903367771418,"107":0.1092421093909114,"108":-0.02490973906677138,"109":0.011643909716537573,"110":-0.01427588747910965,"111":0.03249786475306577,"112":0.07655504802963055,"113":0.1322571003930723,"114":0.054318990686149426,"115":-0.06484810514972343,"116":0.11630146009524861,"117":0.060529095206293494,"118":-0.0419146918907141,"119":0.169127234287139,"120":-0.06640071355108633,"121":0.14110535757582246,"122":-0.15605044281637742,"123":-0.040792904906796504,"124":0.2386400624244869,"125":0.203127316465091,"126":-0.13684199122199744,"127":0.057653242063381085,"128":-0.011269459238391968,"129":0.18508883279144805,"130":-0.046558673261600216,"131":-0.021553018184998284,"132":0.26009814956455,"133":0.09927233610817511,"134":-0.21818310310531006,"135":-0.025914424950309337,"136":-0.14291286567548403,"137":0.11685839442213737,"138":-0.11755415445841724,"139":0.1226302455938884,"140":0.2159421348605989,"141":-0.06747448649190403,"142":-0.0360601457754649,"143":0.16086633490941385,"144":-0.21086023136864554,"145":0.15934260279648402,"146":-0.3460857768161463,"147":-0.06334312665615471,"148":0.18458201422130419,"149":0.051387864625221755,"150":-0.08061094244697221,"151":0.15853285787100999,"152":-0.21251195236917514,"153":-0.013435454802080148,"154":-0.12066867177718475,"155":0.044284344059935705,"156":0.28363590795598603,"157":-0.044824644280724295,"158":-0.16531598913557705,"159":0.1327455294730963,"160":-0.059975465037748595,"161":0.021886559571519852,"162":-0.30656578137215207,"163":-0.06162297772294024,"164":0.07382305021153472,"165":-0.1400208354550382,"166":-0.11350641872322811,"167":0.03360353226880959,"168":0.04374839879406016,"169":-0.05010315806276207,"170":-0.01814840029791738,"171":-0.17885419589329363,"172":0.01650337252768477,"173":-0.09334282999648547,"174":-0.07692448648589878,"175":-0.05820259355633894,"176":-0.011468871719912477,"177":-0.054037048348263984,"178":-0.04374723821452715,"179":0.06284939086852612,"180":0.012417470755131884,"181":-0.22963300498082942,"182":-0.25422420410602625,"183":-0.20783016898679152,"184":0.09258546255855907,"185":-0.01708374704945041,"186":0.0006806453595661018,"187":-0.10136401701675352,"188":-0.07059563206842594,"189":0.016621805495574005,"190":-0.24727954424299317,"191":-0.06809990883821122,"192":-0.002936564077131852,"193":-0.058891582690926196,"194":-0.0417785115625876,"195":-0.07403307875759056,"196":-0.2721433557270258,"197":-0.08770077155057286,"198":0.01375324630769168,"199":-0.10703294256018639}},{"sx":5,"sy":5,"depth":8,"w":{"0":-0.1579299541306403,"1":0.09152188959750464,"2":-0.0064366181415579544,"3":0.0038966163009201563,"4":-0.09822854456421072,"5":-0.05022880528454404,"6":0.11879396942002016,"7":0.07881773943716239,"8":0.024365805094764076,"9":-0.02845617742234695,"10":-0.0689684463869515,"11":0.0890319625184949,"12":0.027861022130018415,"13":-0.027674879204926582,"14":0.006942225949852944,"15":-0.026074534176082208,"16":-0.027611723908525142,"17":-0.01203946199391993,"18":-0.20626406126887648,"19":0.026244553446797728,"20":0.06824083381360076,"21":0.04529691956536923,"22":-0.23157743187960989,"23":0.06529811159866336,"24":-0.14607927077088553,"25":-0.15929940417188224,"26":0.01928129835425983,"27":0.13145311848937552,"28":-0.045007886188991875,"29":-0.030494837182168912,"30":-0.08077488296718129,"31":0.04570899305606777,"32":-0.09892205356169617,"33":-0.10528186235248628,"34":0.09139985399217765,"35":-0.09385602260071099,"36":-0.08168602057654382,"37":0.0493900648996958,"38":0.10527727838388327,"39":-0.10968405059900344,"40":-0.13929819846033142,"41":0.01901854294612836,"42":-0.008640358429614001,"43":0.04115217807250867,"44":0.09453896892288816,"45":0.05328477558688224,"46":-0.028433345195122528,"47":0.08777368882033051,"48":-0.07772770417482062,"49":0.0017536958981095889,"50":-0.1171493148731321,"51":-0.01053076116834169,"52":0.004626345418836334,"53":-0.0517696211974895,"54":-0.00803290398382769,"55":0.04481685489538199,"56":-0.18614956716626763,"57":-0.04585175256179144,"58":-0.15179273455123907,"59":-0.024503545306372655,"60":0.0748663110944371,"61":0.09992643414833521,"62":-0.020963783517219472,"63":-0.17843275908952194,"64":0.05660203260775883,"65":-0.07707340943083849,"66":0.06255991522283656,"67":-0.0493199176545369,"68":-0.095169585508664,"69":0.06401265524489305,"70":0.08344852556932521,"71":-0.0349244325031283,"72":0.023859463506422384,"73":0.05658967790226456,"74":0.210437712297866,"75":-0.17080516638014845,"76":0.004515877082341035,"77":0.06651119918294947,"78":0.12098056681342104,"79":0.03899019669811701,"80":-0.029513998404256194,"81":0.05602174848721691,"82":-0.12190805175268575,"83":-0.029936653176338757,"84":-0.06016035233671519,"85":-0.06427925323580536,"86":-0.1100186718724374,"87":0.04919995592061124,"88":-0.1517328888902925,"89":-0.1071969053855003,"90":-0.08042162890219316,"91":-0.12239190286121258,"92":-0.15983702552848694,"93":-0.2407842019626155,"94":-0.07137272916405481,"95":-0.051735700426289374,"96":-0.01910917158326147,"97":-0.10894118941941769,"98":-0.135882886598084,"99":0.024987407961696594,"100":-0.03993897776249193,"101":0.089220056448775,"102":-0.027289154731616107,"103":-0.06431558565085453,"104":0.1956772269522076,"105":-0.05161213194207649,"106":0.20747171246817547,"107":-0.0676390384999898,"108":-0.010344503508549437,"109":-0.05312216307787193,"110":0.1596479924409144,"111":-0.07557571609563174,"112":-0.03358545008772365,"113":0.20859448379703283,"114":0.11593837281332343,"115":-0.017178825375067815,"116":-0.16076073009374414,"117":-0.06719604828523752,"118":0.004932253813871043,"119":0.06317334972949064,"120":-0.14856152100682468,"121":-0.08085609338010409,"122":-0.09235140204573453,"123":-0.1376454245766187,"124":-0.021222769042251188,"125":-0.12463122500613161,"126":-0.05261991661954756,"127":0.07114381198284639,"128":-0.045246979643582326,"129":-0.11052320506408475,"130":0.0756880112575848,"131":-0.017820388877824868,"132":-0.23099449034111336,"133":-0.043516306209338655,"134":-0.04578157967960555,"135":-0.13029380946470673,"136":0.005626133644597714,"137":0.02210770435321944,"138":0.17621790838181758,"139":-0.17920915954028094,"140":-0.14020787489563613,"141":0.028524360526545584,"142":0.10418819866011506,"143":-0.12200006684392672,"144":0.003624188379567234,"145":-0.09100514821933177,"146":0.2263613515792579,"147":-0.07551870862716217,"148":-0.15448794035423416,"149":-0.19282149451966463,"150":0.12725228803834246,"151":-0.06315873130572497,"152":-0.03303044706917677,"153":0.13830104173688967,"154":0.006929787178332911,"155":-0.08284870792317713,"156":-0.02926455467218866,"157":-0.22592420220998768,"158":-0.10061827984619458,"159":-0.06203013601493103,"160":-0.1237161300884637,"161":0.003716164842847404,"162":0.08173343237862314,"163":0.0378823274390615,"164":-0.06906980267050082,"165":-0.06316963161143817,"166":-0.1614346785887385,"167":-0.07742095407311586,"168":0.029746914264309456,"169":-0.002178871036489703,"170":0.16430765646461815,"171":-0.09365496142953261,"172":-0.0627845384340364,"173":0.012492645734452166,"174":-0.04693395443102433,"175":-0.13343550099287363,"176":0.025502434870439104,"177":0.046497565322023655,"178":0.19056084523445269,"179":0.0036835307803319683,"180":-0.048101565487381114,"181":0.01337142418872227,"182":0.13572967853266588,"183":-0.03326538406256839,"184":0.012553508077938244,"185":0.06467302264347555,"186":-0.03543419174591963,"187":0.042135270204607285,"188":0.018789014398062402,"189":-0.14753198321622168,"190":0.20561829025300488,"191":-0.14568440868128846,"192":0.10780989380954652,"193":-0.013179074782537195,"194":-0.11217237321079924,"195":-0.043383938124691095,"196":-0.12835803811180746,"197":-0.13471304358635272,"198":-0.148816546234554,"199":-0.025301207307316977}},{"sx":5,"sy":5,"depth":8,"w":{"0":-0.013538619918018658,"1":-0.018053253857163762,"2":0.044137086929992415,"3":-0.09472575570333355,"4":0.11683614731537356,"5":0.000030644522648813144,"6":-0.013672822379379328,"7":0.057046537406494034,"8":-0.14073792052022044,"9":0.04131854135500437,"10":0.15267988724866124,"11":-0.117712431700635,"12":-0.023223990723335197,"13":-0.014233091345076077,"14":0.07241590326882608,"15":0.11963795448700937,"16":-0.11708243821485953,"17":0.03490041724980303,"18":-0.039366947169166826,"19":-0.12576336183846068,"20":0.0014904682856833715,"21":0.229607077161237,"22":0.02069458573995448,"23":-0.05035153670822677,"24":-0.021767328506173186,"25":-0.05254254335574575,"26":0.16281651112198628,"27":-0.04819438496329132,"28":0.03603537542440783,"29":0.10260943514520694,"30":0.06971673509090678,"31":-0.08746630323258182,"32":0.028133365411925983,"33":0.07781691322384536,"34":0.011738166847846948,"35":0.029867667211615895,"36":-0.0792664273368054,"37":-0.1510872639686823,"38":0.13581168723034848,"39":0.00008611897675617685,"40":-0.018492824619382116,"41":0.0850294301106916,"42":-0.058333976675966466,"43":-0.06840760009712253,"44":0.07285919000749759,"45":0.024835459544150233,"46":0.05149261061466479,"47":0.10532988025785409,"48":0.03759446765007181,"49":0.04504397650886326,"50":0.19863064701727676,"51":0.002476638338698039,"52":0.11097661316401905,"53":0.002515139882608852,"54":-0.00713693166546199,"55":0.10678532801068724,"56":0.08660528778016408,"57":0.06574374852251744,"58":-0.09465319030605013,"59":0.022425144377139168,"60":0.019705575574408222,"61":0.0875935050233984,"62":-0.14139988142391832,"63":0.028968806265489266,"64":-0.04711561259913559,"65":0.05135349409885082,"66":0.10366237908564249,"67":0.005456910240642491,"68":0.05129866371975161,"69":0.15865550343593934,"70":-0.008789572559574263,"71":-0.03962295751902642,"72":0.05205994987636453,"73":-0.0322611242067911,"74":-0.020290199421756215,"75":0.07019080007135224,"76":-0.05796824582613842,"77":-0.08511724904956754,"78":-0.1758100370215849,"79":-0.0047772808495087265,"80":-0.16743970163467872,"81":-0.16887686123205772,"82":0.019858798814787065,"83":-0.09818009910782592,"84":-0.11066124645211087,"85":-0.03963103303953097,"86":-0.004711694913063443,"87":0.08853201518178594,"88":-0.09260598461021016,"89":0.03693199225946368,"90":-0.07594637478946897,"91":-0.04436673356177303,"92":-0.05124612816598795,"93":-0.06358899874875738,"94":-0.011938249431090318,"95":-0.002281012025160531,"96":-0.04241295212935628,"97":-0.007525662633490658,"98":-0.09846276173970107,"99":-0.13114709342878447,"100":0.12219124818843952,"101":0.06667508029436657,"102":-0.06830220432440333,"103":-0.1168232478372929,"104":-0.25562179790394923,"105":0.05462731750920807,"106":-0.05154044330475002,"107":-0.055413534648644694,"108":0.2219768000486984,"109":0.022489287143758977,"110":-0.24980069826468831,"111":-0.031841449625666755,"112":-0.1791455228300659,"113":0.062346181834921625,"114":-0.027919729462331688,"115":-0.03356786352908606,"116":0.17765371221796977,"117":0.05015219615854122,"118":0.029855949088157644,"119":-0.06186507827277767,"120":0.07553744851882245,"121":-0.049552690643216685,"122":-0.07098114665742049,"123":-0.031393265426279175,"124":-0.06959713341931853,"125":-0.07434589376281174,"126":-0.044439984944719194,"127":-0.0806594566252371,"128":0.15413583066552478,"129":-0.0007192595706928479,"130":-0.05431135925684708,"131":-0.030068460231460006,"132":-0.10589695676984566,"133":0.11750501464798964,"134":0.04905602647533451,"135":0.024352032433199285,"136":0.0930933541123527,"137":-0.12391702691374872,"138":-0.1531813770456925,"139":0.020433472160443333,"140":-0.11420260739178402,"141":-0.016889001706225176,"142":-0.09013842878797702,"143":-0.0032800790644106842,"144":-0.022638251135814504,"145":-0.12602987132015206,"146":0.0453470819489363,"147":0.0006936625017917201,"148":-0.07155696669962958,"149":-0.07144158450686174,"150":-0.09593623026877342,"151":-0.16751039271292018,"152":-0.0674140219324984,"153":-0.013197746877330658,"154":-0.12776791925283193,"155":-0.036276939716595465,"156":-0.0895935323661503,"157":-0.11000905548762216,"158":-0.11722430674888729,"159":0.021225742722965006,"160":-0.10660390178143063,"161":0.05374183579884714,"162":-0.046229521495248053,"163":-0.037850045338755474,"164":0.014315575367897097,"165":0.13193499480849902,"166":0.06593304720621534,"167":-0.07414867917261311,"168":-0.11772191049388712,"169":0.01607833954075128,"170":-0.10785424281409228,"171":0.09612575291948672,"172":0.09804926901698252,"173":0.06357652159066511,"174":-0.08172991676901871,"175":-0.11600082801914888,"176":-0.04485970903165177,"177":0.010143156066556597,"178":-0.07090801491098202,"179":0.05792032491025039,"180":0.08805805687421259,"181":0.19193054444063018,"182":-0.02178816085720904,"183":0.0838548515180338,"184":-0.16061686267837966,"185":0.024273257987418924,"186":-0.14257611254506308,"187":0.03514811559609139,"188":-0.29248866924242906,"189":0.02794492207976682,"190":-0.04528987032011258,"191":-0.06341194794381916,"192":-0.034069202231724785,"193":-0.04917270249870386,"194":-0.02026190295281481,"195":0.003433603795367791,"196":-0.21026170554867846,"197":-0.09076553492620254,"198":0.08082272907310778,"199":-0.015172205303752453}},{"sx":5,"sy":5,"depth":8,"w":{"0":-0.06515775114870916,"1":0.06518092049117502,"2":-0.03495200429981892,"3":-0.05636351295373641,"4":0.09479341156192368,"5":-0.08620489410281307,"6":0.1323267163071379,"7":0.006654503754561681,"8":-0.1745731684681927,"9":0.04633486960756916,"10":0.06753935146745109,"11":0.034404194311086496,"12":0.04911036135622496,"13":-0.03908312518337768,"14":0.062471966372146616,"15":0.09034429462362188,"16":0.12610153388571257,"17":0.02970077622338959,"18":0.12175244883689439,"19":-0.15558370761219134,"20":-0.02814901813605462,"21":-0.057026311061625784,"22":0.07949094177097668,"23":-0.13303807183415606,"24":-0.0852909075636383,"25":-0.048793771567904036,"26":-0.022360639087614143,"27":-0.06650016277815102,"28":-0.23477038571096145,"29":0.031169115940761348,"30":0.02504258006567068,"31":-0.09551332849241073,"32":0.22927547912102894,"33":-0.1273011085390882,"34":0.08346116628355921,"35":-0.053108189099500776,"36":-0.16627631333302964,"37":-0.0003406361755804808,"38":-0.04390814763614866,"39":-0.11454345555204386,"40":0.006529826513691604,"41":-0.16944609179937836,"42":-0.03906431102624678,"43":0.15655255369838392,"44":-0.03208673179471489,"45":-0.038564912381178255,"46":0.06442887771920576,"47":-0.00040713933654046904,"48":-0.027748886823653503,"49":-0.16412068173285874,"50":0.09211286062127154,"51":-0.09015729906476154,"52":-0.14216654653366095,"53":0.012042986780690436,"54":0.020212337734441154,"55":-0.06745986393920296,"56":0.009642543528720685,"57":0.03290028165586198,"58":0.12096902461523965,"59":-0.030458353377824387,"60":-0.1563134682381229,"61":-0.2107498799856162,"62":0.10505035265777746,"63":-0.07227243761974404,"64":-0.06166579040481089,"65":-0.029182030600526015,"66":-0.04575923029975189,"67":-0.0006469970486777414,"68":-0.16200703339678998,"69":0.15336268076711143,"70":0.034588817789318715,"71":-0.14523822612371584,"72":-0.08527362110335644,"73":-0.018653593038759454,"74":0.21518775513800814,"75":-0.18450439034270716,"76":0.052659064244525475,"77":0.07018119218344286,"78":0.14162793462924356,"79":-0.06788381063934656,"80":-0.040952141779577414,"81":0.050445224812107566,"82":-0.061264771512667224,"83":0.037914496078854866,"84":-0.1618208873046042,"85":0.01274674589877779,"86":-0.03027290767411295,"87":-0.019662390304637404,"88":-0.035546340102660244,"89":0.050559754202541,"90":0.08914931674867893,"91":-0.12333248365507135,"92":0.17114318892833558,"93":-0.08318907530821978,"94":-0.04074091584892987,"95":-0.01671480538073889,"96":-0.2555051435457726,"97":0.05495881546737805,"98":-0.0024479256193224263,"99":-0.021406697032697035,"100":-0.001978151825292548,"101":0.03976539015683374,"102":0.07731026158776844,"103":-0.046082234269110754,"104":-0.04945765653486101,"105":-0.008525072476106687,"106":0.09891362891016053,"107":-0.004327348700487333,"108":0.0589023789131385,"109":0.13424731679064875,"110":-0.0898066661285148,"111":0.08543940651538244,"112":0.12017735523556208,"113":-0.08279988045150326,"114":0.12672153281336715,"115":0.004957081166640188,"116":-0.10589880618108312,"117":0.10995742918871017,"118":0.17455245935516042,"119":-0.04157054681038706,"120":0.006586069574318917,"121":0.07928214087431357,"122":-0.10834330475491113,"123":0.011376927764920768,"124":0.0427497911011647,"125":0.02558913857083525,"126":0.025495729448178617,"127":0.053059474409360895,"128":-0.05650364952067188,"129":0.07511541018329107,"130":-0.09360838561802977,"131":-0.02948551342909108,"132":0.04774069820947185,"133":0.04031040556014335,"134":0.019866124346664443,"135":-0.035888075652050655,"136":0.005613345299516272,"137":-0.0686021594936295,"138":-0.07241377091311793,"139":-0.019405298150713315,"140":-0.07831704140863802,"141":0.017336295450947427,"142":-0.11163667870541596,"143":-0.04815007070747679,"144":0.10173956950599701,"145":0.03198018386650803,"146":-0.01821089076735232,"147":-0.17765602240615808,"148":0.18895601552247265,"149":0.07777007230967362,"150":0.11054739337492271,"151":0.10417159096789301,"152":0.03632539427403585,"153":-0.03157617431133815,"154":0.05490036833613699,"155":0.12541268171113037,"156":-0.010709166194250358,"157":0.028964235502626126,"158":0.08180861564203093,"159":0.14329617116531032,"160":-0.005710399820227866,"161":0.07154326275874823,"162":-0.08662379945320609,"163":-0.07137482762289525,"164":-0.10015233874248558,"165":-0.04523748157564422,"166":0.04237450426946754,"167":-0.04431001864944878,"168":0.014070230523008324,"169":-0.11873598788784398,"170":-0.05542944467501856,"171":0.0008734011093089922,"172":-0.1807830056526945,"173":-0.06773592318943547,"174":-0.1494873275037119,"175":-0.09960815331973662,"176":0.016049985793740878,"177":-0.08883591348776114,"178":-0.07244911064947152,"179":-0.13345584808338826,"180":-0.06315939224101676,"181":-0.13562520692570634,"182":-0.05668730908370407,"183":0.005683353304906578,"184":-0.04327154313768732,"185":-0.04079691489000402,"186":0.039787338762093345,"187":-0.08227810238734179,"188":-0.03808425804090236,"189":-0.004917371383125168,"190":-0.03777637507883791,"191":0.06812810120679495,"192":-0.07088407798361515,"193":0.11268719256021545,"194":-0.10541876084813757,"195":0.021866171270515794,"196":0.026161507057969473,"197":-0.2369207925727667,"198":-0.006618103751979289,"199":0.0025704900049848796}},{"sx":5,"sy":5,"depth":8,"w":{"0":0.22106487820878307,"1":0.052332385789273086,"2":0.00630714824069125,"3":-0.10227294768877755,"4":-0.129601166255822,"5":-0.013906364533429043,"6":-0.01326986874815311,"7":-0.14317524749972255,"8":0.1890017758460509,"9":-0.1365652940576578,"10":0.013418903266049277,"11":-0.021165735292633055,"12":-0.19835234914064126,"13":0.1365819221832315,"14":0.02220823512926607,"15":-0.14348996635819913,"16":-0.015922690654179724,"17":-0.2150268263630663,"18":-0.15460451689584012,"19":-0.03367126006378071,"20":-0.054245637960224045,"21":-0.21376318449881074,"22":-0.10105933370739775,"23":-0.19465537790658136,"24":0.2176834015794085,"25":-0.12098345461285848,"26":-0.09411758414738726,"27":-0.1377153348301559,"28":-0.15997739576523112,"29":-0.16491423460199428,"30":-0.02808746608796033,"31":0.02626911411298863,"32":0.10038548846554349,"33":-0.05661975965816512,"34":0.08942548473497523,"35":0.040580453575024204,"36":-0.0994389865188003,"37":-0.07218377846325016,"38":-0.038233795573534075,"39":-0.15167179235496459,"40":-0.14458495779744168,"41":0.11268337292130975,"42":-0.04728306885809773,"43":-0.07911588302390347,"44":0.07833478052330176,"45":-0.010554609097585085,"46":-0.010757790004588607,"47":0.17430028832300898,"48":0.010673049545486018,"49":-0.12293947135049756,"50":-0.13117381997098107,"51":0.14259912249458043,"52":0.20734969786750346,"53":0.20649156598121732,"54":-0.12181242435100585,"55":-0.11323387042896103,"56":-0.013274827430582066,"57":-0.0002857266250617498,"58":-0.04420726072358035,"59":-0.026796283192502064,"60":0.07170397279742541,"61":0.16461394109066088,"62":-0.12138563083807605,"63":0.012647658250077212,"64":-0.06773693480090388,"65":0.07952504811424685,"66":-0.03289408632062826,"67":0.05176578225307666,"68":-0.03504602386851259,"69":0.11641250004256284,"70":-0.013411624411942383,"71":0.06284883666102531,"72":-0.055628334357310134,"73":0.1968960915027437,"74":0.06580689917251503,"75":-0.04742050028097526,"76":0.19215983102282927,"77":-0.09684570063998973,"78":0.15380512882155642,"79":-0.06251441715886388,"80":-0.005198053867419422,"81":-0.06193600560191222,"82":0.007473170021748993,"83":-0.038235085304764375,"84":0.031522998391873024,"85":-0.0981463175134201,"86":0.07271201793106104,"87":0.032946364380779754,"88":-0.0349143274472289,"89":-0.019671776738212236,"90":-0.009135836064661153,"91":-0.04406402387331075,"92":0.04153449460792751,"93":-0.024255452859000375,"94":-0.11372931397887868,"95":0.02121780026660173,"96":0.04977343849785192,"97":0.040514768693101194,"98":0.028795617342166166,"99":0.008194787237500722,"100":0.18674759877379446,"101":-0.022765914592711038,"102":0.053873123757355985,"103":-0.04410324255671165,"104":-0.10602658384185176,"105":0.14657579551593933,"106":-0.11934562347738945,"107":-0.007844160260412875,"108":0.14792639006951805,"109":-0.04011205078811372,"110":-0.04149584714949665,"111":0.0292087473426816,"112":-0.03009774090648644,"113":0.05897826419174626,"114":-0.020199224963713864,"115":0.042383880109289444,"116":0.12669784938835366,"117":-0.12248308416566475,"118":-0.06020462523059282,"119":0.16210495830920102,"120":0.06654039662628065,"121":-0.12545328294355826,"122":-0.018022673358511872,"123":0.04010047697231768,"124":0.002519990540894953,"125":-0.1720024122787822,"126":0.046312768769448294,"127":0.0036959424544858645,"128":-0.0557334615834909,"129":0.02257056440863316,"130":-0.09126499615902584,"131":-0.1319162925136485,"132":0.04206844170273874,"133":-0.10693513283129975,"134":0.011079620330160125,"135":-0.07765873509131839,"136":0.09683871414497985,"137":0.026661956522627803,"138":-0.05040226981541341,"139":-0.03868788395913466,"140":-0.08229283050365775,"141":-0.1230724664542427,"142":-0.15330953236746309,"143":-0.018529243206722456,"144":-0.12872070317378875,"145":-0.021561902903556487,"146":0.040809149268464476,"147":0.02789058196888404,"148":-0.0641857173074244,"149":-0.0035115841171049073,"150":-0.13278891956165847,"151":0.11492119223585676,"152":-0.012211219464561517,"153":0.02581724510700724,"154":0.02009979281496369,"155":-0.17438502110942347,"156":-0.08353444323666968,"157":0.13287947268708888,"158":-0.06760237313243404,"159":0.04753865470393122,"160":0.13021224809772325,"161":0.09777407808041927,"162":-0.059550815856745515,"163":-0.07810220110790002,"164":0.02624705210315384,"165":0.11100565735092424,"166":0.002948778725003454,"167":-0.020217725263822543,"168":-0.04827145574001498,"169":0.10817328913538626,"170":0.1381950721019559,"171":0.015896605308680076,"172":-0.015390742919404295,"173":-0.035528201034890766,"174":-0.01657621747214247,"175":0.09231726216966583,"176":-0.05841546053736256,"177":-0.10377659163613821,"178":-0.037117896761257756,"179":-0.08741852769628389,"180":-0.08282057554668236,"181":-0.012675928536111155,"182":-0.006790594003256245,"183":-0.02330005409511365,"184":-0.11556218757068747,"185":-0.019657091012245425,"186":-0.09530001568355517,"187":0.0922813597502389,"188":-0.04283709313675709,"189":0.07137816743405336,"190":-0.09637739800961563,"191":-0.07840422497358836,"192":-0.04435036805935062,"193":-0.09468568837550632,"194":0.013863503117810856,"195":-0.0475626358974126,"196":-0.055972135120821234,"197":-0.053363515615263674,"198":-0.016284535817625987,"199":-0.028618991205986263}},{"sx":5,"sy":5,"depth":8,"w":{"0":-0.033418459185964824,"1":-0.009178159833987027,"2":0.04642867251035756,"3":0.004240925963621033,"4":0.043403386174576425,"5":0.043754113904726215,"6":0.20237431233988698,"7":-0.17213409861598147,"8":0.14048274407436365,"9":-0.006102823616797128,"10":-0.015230777076951033,"11":-0.10013992711979657,"12":0.07765975492658792,"13":-0.10065412672807116,"14":-0.029385128971172375,"15":-0.013300067574959107,"16":0.027335270284338638,"17":-0.016193701342062154,"18":0.041477584267998885,"19":-0.10438689909094462,"20":-0.012605227779881484,"21":0.052295088478959764,"22":-0.002673837119770607,"23":-0.08678247270671079,"24":0.07848992761996434,"25":-0.012021509279562012,"26":0.0933925260389705,"27":-0.014171483180503307,"28":0.005432094791745416,"29":-0.09316956037903691,"30":-0.13113063161983257,"31":-0.042538679108874815,"32":-0.07529284524658922,"33":0.039305458298501975,"34":0.07976418989861227,"35":-0.0226765734248194,"36":0.12538705426659227,"37":-0.18768743593405857,"38":-0.004420738583557604,"39":0.008888037144457607,"40":0.020603881527321528,"41":-0.09231171287009457,"42":-0.025608793041711535,"43":-0.10238583202540813,"44":0.08094631350754765,"45":-0.0040630385859498795,"46":0.18462951744150494,"47":-0.06046622658237393,"48":-0.07584727880595576,"49":-0.06019128286541085,"50":-0.09918583104090382,"51":0.030683894470775477,"52":-0.06597349311876592,"53":-0.22481101084978733,"54":-0.045917113191070794,"55":-0.06754294418222977,"56":-0.042876892340519626,"57":-0.09775406271333507,"58":0.055192924346956385,"59":0.003564107009890256,"60":0.1930392959714073,"61":-0.16531546913850864,"62":-0.014674443548314502,"63":-0.03546884431277651,"64":-0.09661289785685041,"65":0.09330931761233681,"66":0.13744823927692318,"67":-0.015955872000332157,"68":-0.014897168576858211,"69":-0.0004516279385871994,"70":0.03743281590764688,"71":0.021689949642116648,"72":0.10835623459105709,"73":0.04146197687232243,"74":0.006401374089532243,"75":-0.11798043357248904,"76":-0.043435149834475696,"77":0.011761369845328318,"78":-0.07862925518665512,"79":0.06877079740756875,"80":0.046552970326827134,"81":-0.04245050678054639,"82":0.15158953695358623,"83":-0.04364216365435886,"84":-0.15339816433223685,"85":0.17920456879957342,"86":0.19764624347489232,"87":-0.06731894615799577,"88":-0.06245484923652196,"89":0.0290435489902565,"90":-0.14301417959308735,"91":0.016218568796349395,"92":-0.11522793489382964,"93":-0.06717578129399544,"94":-0.07563957204231576,"95":-0.14685490204722865,"96":-0.17840266708727995,"97":-0.10346033190560726,"98":-0.04430874867149928,"99":-0.05106362229733612,"100":0.061473225589385554,"101":0.053081599499344975,"102":-0.06094978246697742,"103":0.10909286670430175,"104":-0.07503064359233105,"105":0.0948233918337291,"106":0.09466442323905622,"107":0.0017107805444537528,"108":-0.04095355772793117,"109":0.07355094244285848,"110":0.07736144916782345,"111":-0.06926290345026605,"112":0.022040804692001602,"113":0.03253215022197294,"114":-0.04479291290472932,"115":0.09117923334676924,"116":-0.09159775349309374,"117":-0.035099133348401604,"118":0.06966250391989189,"119":0.02280665479724734,"120":0.03885628008930332,"121":0.022214758553627752,"122":0.16805907489729188,"123":0.029681443511939742,"124":-0.051125713932134886,"125":0.18615319790662388,"126":0.20451919350867098,"127":0.04120614656511724,"128":-0.014032109881090656,"129":0.07025040128104654,"130":-0.04796974337744297,"131":-0.00553685115255839,"132":-0.2131306010719508,"133":-0.2255647054311351,"134":0.129707540906656,"135":-0.13314159073607676,"136":-0.004830402907585637,"137":-0.211387367114523,"138":0.09241621298854566,"139":-0.12057993057518551,"140":0.048728026245260014,"141":0.0069497902017219395,"142":-0.00030508430773714627,"143":-0.07940415522564358,"144":0.09958139351004842,"145":0.053344585643897206,"146":0.23076595171796346,"147":0.14664657855304114,"148":-0.06444025714676616,"149":-0.0050005328194949236,"150":0.014826477528144456,"151":-0.09405601945029853,"152":-0.035192258986614156,"153":0.00882735775087147,"154":-0.1374359831104153,"155":-0.05244995675601534,"156":0.08336045337333683,"157":-0.08129546616069203,"158":-0.11077002088231876,"159":0.028687438168002878,"160":-0.02902968146474811,"161":0.06584085047200586,"162":0.19156778552072645,"163":-0.01793302405808262,"164":-0.09668506807119333,"165":0.1455837743657422,"166":-0.004243395118447268,"167":-0.013331656087908324,"168":-0.09935052383285721,"169":-0.006753183641184498,"170":-0.05338849287829737,"171":0.1289619655162816,"172":0.007868902312848975,"173":-0.06062700690538347,"174":-0.13638563330489828,"175":0.007320533539619874,"176":-0.09880624106669131,"177":0.06164200227317996,"178":0.17145720233486145,"179":-0.08736032574255917,"180":-0.013702119674379403,"181":0.03968332302975393,"182":-0.1398501172915708,"183":-0.050203776907924574,"184":0.02108979593566669,"185":0.03241024771301824,"186":0.11434755045683519,"187":0.056724674347792485,"188":-0.052172010258267766,"189":-0.09529771963144888,"190":-0.02776786980027521,"191":-0.02577869373438634,"192":0.021562646539864463,"193":0.09285218198303773,"194":-0.05091309989047666,"195":0.06688603859986299,"196":-0.15147121314032855,"197":-0.18637914758590995,"198":0.019959874489363583,"199":0.1630686610895277}},{"sx":5,"sy":5,"depth":8,"w":{"0":-0.1276406313916375,"1":0.11394576246792047,"2":-0.031347285803921356,"3":-0.1897943947486136,"4":0.0956957274157382,"5":0.04400931748990032,"6":0.11718065633748906,"7":-0.08687754373759449,"8":-0.04438448457571496,"9":-0.08600767819771216,"10":0.020556511455358317,"11":0.04207843222146162,"12":0.26936049182900634,"13":0.02274841521468889,"14":-0.019981286846121774,"15":0.10068454291229967,"16":-0.054007299864035324,"17":0.10884398820029441,"18":0.023930153241941983,"19":0.1011819089417793,"20":0.1768416417217516,"21":0.0778618459700787,"22":-0.15614900658924413,"23":0.09853545642666615,"24":-0.00956934831280462,"25":0.23938211268656787,"26":-0.14110022206835135,"27":0.04464032805371712,"28":0.23151920300984652,"29":0.060457602735416074,"30":-0.10930504828879713,"31":0.056131568041094156,"32":-0.03474329466179836,"33":0.10161855710613432,"34":-0.021464003179011884,"35":0.09243724149725364,"36":0.26076299955469145,"37":-0.006723607722608129,"38":-0.06938551936547653,"39":0.18521215964435536,"40":-0.045820264561358175,"41":0.004391347630132858,"42":-0.049212284070246824,"43":0.09019624296830263,"44":0.0008775715805083332,"45":-0.0961069876009264,"46":0.09442283627859592,"47":0.09481668457301068,"48":-0.14840719546067335,"49":0.02712886555174663,"50":-0.11893468445433261,"51":-0.03021866631988705,"52":0.059005708723935964,"53":0.027327987310944206,"54":-0.005770565217358777,"55":0.1614445869898705,"56":-0.10963118354767357,"57":-0.052044994022642475,"58":-0.09727194026379532,"59":-0.008877365786819727,"60":-0.010902028603436616,"61":-0.05635353017477079,"62":-0.1465917278145874,"63":-0.14659050572877874,"64":-0.16321025106613377,"65":0.035751361313486635,"66":-0.20761950524823294,"67":0.03100668462433777,"68":-0.009035932149311783,"69":0.028758600893656353,"70":-0.03504513454066079,"71":-0.010737093569760155,"72":-0.22115788980150386,"73":0.009977850297197562,"74":0.05159614341868937,"75":-0.021876214126668354,"76":0.09226351936704248,"77":-0.0590377097154009,"78":-0.0882283317846376,"79":0.24486634957680034,"80":-0.22316333392446258,"81":-0.06463359877005566,"82":-0.038778096771375135,"83":-0.07428804624184614,"84":0.04738490955034816,"85":-0.06933831061743771,"86":-0.12073789789359339,"87":-0.08313659359780397,"88":-0.18273924460606658,"89":-0.13039363299054157,"90":-0.1285031677681006,"91":-0.023894803095008268,"92":0.03367593451225701,"93":0.07594962263572656,"94":-0.1369360809085256,"95":-0.056789235294724155,"96":-0.33830807867567425,"97":0.023502684522630407,"98":0.05645289332196275,"99":-0.09729026056181618,"100":-0.05453332063354559,"101":-0.04484273051746493,"102":0.03871028575957027,"103":0.04015686816501538,"104":-0.08704779896887489,"105":-0.09179286348946988,"106":-0.1748726255200884,"107":-0.11763682203509607,"108":-0.04703647171276951,"109":0.12105626023306294,"110":-0.06691694640770152,"111":0.07396147616969821,"112":-0.08140740125299623,"113":-0.09933883713434295,"114":-0.10214484018860552,"115":0.0017750396140582456,"116":-0.1758177591831562,"117":-0.041359573600680245,"118":-0.009334253589157659,"119":0.028184379541744548,"120":0.11605903371160206,"121":-0.125854410637672,"122":0.06781912445141036,"123":-0.11435400187149451,"124":0.024724696997995246,"125":-0.18419122189757933,"126":-0.019693182694751215,"127":-0.036290624142985554,"128":0.021104928116825385,"129":-0.09044639351930034,"130":-0.0826007432617061,"131":-0.16240360000838486,"132":-0.013202803425002217,"133":0.06589929694091332,"134":-0.01625242083560914,"135":-0.019053743208605218,"136":-0.09044924381802513,"137":-0.057529603886509934,"138":0.0706471563886778,"139":-0.03709051859096571,"140":-0.09115269878144477,"141":0.11231008034933279,"142":0.15499127743516009,"143":-0.05989799084589008,"144":-0.00390005580089026,"145":-0.03899183439865523,"146":0.05065792717746369,"147":-0.04476896405336329,"148":-0.08077518097709291,"149":0.0038261557102124526,"150":0.12067943089472788,"151":0.07982671641861394,"152":-0.15262313851980555,"153":-0.004215717818189045,"154":-0.1652329365551578,"155":-0.10985740699930654,"156":-0.1697337225229852,"157":0.008861536253239169,"158":0.02151212713227631,"159":-0.026824705132394655,"160":0.02588034690290007,"161":-0.0785907415604896,"162":-0.029314999223787643,"163":0.004526030062509316,"164":0.05963784591756936,"165":0.1757736033478464,"166":0.12006486255141104,"167":-0.00996086507779666,"168":-0.016324764352136877,"169":-0.1358034301335244,"170":0.168941928854182,"171":-0.16807030773511225,"172":-0.0003346035059205862,"173":0.22596540454835062,"174":0.06190958581623041,"175":-0.2631509330202359,"176":-0.011806581565119509,"177":-0.10637948142891765,"178":0.06972884556411989,"179":-0.03909110935440556,"180":-0.17026382348682134,"181":0.07280559854885396,"182":0.06827125739309313,"183":-0.227011933783529,"184":-0.17490554263675107,"185":-0.02164702930163681,"186":0.011149303372809196,"187":-0.10569258599468884,"188":-0.15239486893116727,"189":-0.17598125136172427,"190":-0.09155191065884545,"191":0.014180848390688472,"192":-0.21175791279043174,"193":-0.0042882044240988475,"194":-0.11707263130421416,"195":0.17115745143004238,"196":-0.16365902612181335,"197":-0.0896000552138271,"198":-0.020108383918097855,"199":-0.018504867324809084}},{"sx":5,"sy":5,"depth":8,"w":{"0":-0.04509144080470122,"1":0.05019294290058934,"2":0.0028113471330038385,"3":-0.25183844260126775,"4":-0.05899183126428002,"5":0.043190364683779965,"6":0.049590958961305234,"7":0.06678717352719601,"8":0.0792103063646804,"9":-0.059899686555462434,"10":0.19192011708317241,"11":-0.050763023755775044,"12":0.033112164186521964,"13":-0.012954554753466319,"14":0.11576373307404564,"15":0.0045892494194022,"16":-0.10301048793325443,"17":0.0232654259935643,"18":0.11854752519841383,"19":0.10962742544252516,"20":-0.13048914853226856,"21":0.15205262565039526,"22":0.23972166059790706,"23":-0.09695054533701974,"24":-0.10913313488917135,"25":0.14909288684990193,"26":0.07404212742995463,"27":-0.019810257332397017,"28":0.0028396063803387997,"29":-0.10047704651246957,"30":0.033519798729104024,"31":-0.06753522113089565,"32":-0.1658520872921145,"33":0.04424708311466532,"34":-0.09708801159433522,"35":-0.014463259633823316,"36":0.06375300067077583,"37":0.08030468391310082,"38":-0.16058402423250212,"39":-0.033125903509486535,"40":-0.13558349821239313,"41":-0.016352039000303065,"42":-0.21829440701644623,"43":0.02326126585896483,"44":-0.03518266806353509,"45":-0.05022511468301588,"46":-0.031495903614274665,"47":0.084792701590582,"48":0.05265318792747049,"49":-0.0462091789143176,"50":-0.030302476884962085,"51":-0.11787107360283758,"52":-0.010985673277546204,"53":0.2789590108331354,"54":0.041743764338307086,"55":0.03979773757823785,"56":0.09387110193741253,"57":-0.04688475529618646,"58":0.12338383164842984,"59":-0.010499987794357334,"60":-0.09232377604184043,"61":0.16547857891857107,"62":0.21356315968840175,"63":-0.022040079238611985,"64":-0.020349566321499955,"65":-0.1570263122192602,"66":0.07329973096873463,"67":-0.05839517274623705,"68":-0.23628548028470242,"69":0.08121438834805014,"70":0.16381388904654592,"71":-0.09507652426794543,"72":0.13674607973242467,"73":-0.21777495277342004,"74":-0.06338634617034679,"75":-0.06364882834177828,"76":-0.015924906455048474,"77":0.028613160026659014,"78":-0.04591015763657627,"79":-0.0564784759466321,"80":-0.14846362251690362,"81":0.0037563058029495586,"82":-0.1083013477796678,"83":0.010205488150825684,"84":-0.1024757823504089,"85":0.14866694347432055,"86":-0.05168291049006867,"87":0.03264406168659895,"88":0.06922184528302006,"89":-0.02520865348492233,"90":-0.11493135657355749,"91":-0.1715909508796964,"92":0.11165094859632567,"93":0.24652683220841246,"94":0.017160277495025193,"95":-0.06019991169553806,"96":0.16567741232923333,"97":-0.19436035016633343,"98":0.12816441815779767,"99":0.02643088489957728,"100":0.11886368695967041,"101":0.20673994913189642,"102":0.03422515985720795,"103":0.09861648129493689,"104":0.06335025829543682,"105":0.058418817482823925,"106":-0.0814026315094776,"107":0.1801638606601729,"108":0.075245787695591,"109":0.18277511245572686,"110":0.05469715305231037,"111":-0.0339237169700387,"112":0.18501321189191283,"113":-0.06821418011292339,"114":-0.06326278255579765,"115":0.04712539123700963,"116":-0.012069713651827832,"117":0.14291637652135888,"118":0.10909503483766533,"119":-0.2009029009482089,"120":-0.12047668906232133,"121":0.039560959654702,"122":-0.24755725940273438,"123":0.08350291112836754,"124":0.07211007109847979,"125":-0.13807436619572572,"126":-0.20413466833547997,"127":-0.05394548321474213,"128":-0.1306971593340245,"129":0.04240588320021653,"130":-0.18820002360288363,"131":-0.03914671886706115,"132":0.13582416484326829,"133":-0.12004701418947748,"134":-0.12147121840328232,"135":-0.16713771473238073,"136":-0.11537904720229976,"137":0.03268791222014631,"138":-0.12565904310144738,"139":-0.25628097737681266,"140":0.06096903603109331,"141":0.17778423653785477,"142":-0.08640993295585295,"143":-0.14447193825754287,"144":-0.04468785832105444,"145":-0.10669740580843193,"146":-0.03667481493859773,"147":-0.1482281491354385,"148":-0.028285739756096908,"149":0.29826646879498014,"150":-0.10926554930897318,"151":-0.05020119864614829,"152":-0.06720942316390544,"153":0.019433846212421953,"154":0.11001312540764134,"155":-0.028722953136684614,"156":0.1123595696992026,"157":0.18912195324055286,"158":0.07125030017103211,"159":-0.11145384557717344,"160":-0.10227515239175408,"161":-0.13399153761247243,"162":-0.2851347922536733,"163":-0.02585470991193824,"164":0.011399694814256832,"165":-0.08421088188836168,"166":-0.14641597418932914,"167":-0.052401638658405934,"168":0.050440884746616205,"169":0.151761256883438,"170":-0.12663668307702694,"171":-0.21273123917149991,"172":0.05862917992135468,"173":-0.1574416435314597,"174":-0.1464366833749823,"175":-0.09415925884335972,"176":-0.0483884482050085,"177":-0.10717312029580842,"178":-0.0044639443900238015,"179":-0.15829371469952386,"180":-0.1024163881489973,"181":-0.13847860974568002,"182":-0.06715331426201097,"183":-0.16230158166296502,"184":0.07463089585039476,"185":0.005739540570802914,"186":-0.006726186124083488,"187":-0.05614864505655016,"188":-0.05336884953614648,"189":0.08795353463908316,"190":0.032455715988128554,"191":-0.1927092606714692,"192":-0.01803094592953359,"193":-0.004635119731968012,"194":0.13034904949548637,"195":-0.1756734795233456,"196":-0.08126486710954696,"197":-0.015854887733312645,"198":0.08796196155923074,"199":-0.10270730923950427}},{"sx":5,"sy":5,"depth":8,"w":{"0":-0.0668410745176676,"1":0.033747658817692656,"2":-0.07354175053994715,"3":-0.002920247403642711,"4":-0.04994776463624386,"5":-0.0618527981144729,"6":-0.08615432185628707,"7":0.01949269532345738,"8":-0.029158283626626064,"9":-0.08170489517439888,"10":-0.06170187550526424,"11":0.031012827630093588,"12":-0.0378438417832561,"13":-0.05996186782707687,"14":-0.02115166806359351,"15":-0.02482760949071545,"16":0.027897299229246126,"17":-0.02117539093415302,"18":0.06702862545180333,"19":-0.04465531438500625,"20":0.045835720950068416,"21":0.0841746040563775,"22":0.06545451502969644,"23":-0.0036579052435257342,"24":-0.040416172478842105,"25":-0.19056636996503584,"26":0.10634774702398779,"27":-0.012712044567466335,"28":-0.076698509909356,"29":0.0016428909225100806,"30":-0.0009167081242166719,"31":-0.09692101340102166,"32":0.043628447577756274,"33":-0.16279651137840206,"34":0.1100291298262475,"35":-0.044930618825258645,"36":-0.056859084282619175,"37":-0.028614522495313544,"38":-0.0800712123273722,"39":-0.013813956049598734,"40":0.06822168779259383,"41":-0.020406095235568106,"42":-0.12131046408050151,"43":0.04964374513198583,"44":-0.03522534344259191,"45":-0.21667257268406834,"46":-0.06826044131332303,"47":0.018815315941652328,"48":-0.01817238732065886,"49":-0.04922707787000226,"50":-0.04729040593556852,"51":-0.022090824124965457,"52":0.050524417881215256,"53":-0.09795634260564356,"54":0.020302325369711206,"55":0.017378173254016208,"56":-0.18034365772024313,"57":0.04932637649872433,"58":0.030199003795152564,"59":-0.016988107791859847,"60":-0.03512239688548115,"61":0.08005151492615178,"62":-0.11283561539639395,"63":-0.039551661352844346,"64":-0.011469421199027654,"65":-0.1715371644698511,"66":0.012549237710917054,"67":-0.14880313418407587,"68":-0.11053726450508845,"69":0.09268524127795719,"70":0.1261865496286475,"71":-0.042067040667113746,"72":0.20914769511157927,"73":-0.05816875278733419,"74":0.11234216927925159,"75":-0.07818666869917103,"76":-0.0688548567122818,"77":-0.15352983485498659,"78":0.022918400264508264,"79":-0.2151631778672736,"80":-0.12416281405604337,"81":0.12828088643144364,"82":-0.05467736515931596,"83":-0.0337543095343486,"84":-0.09790419854849432,"85":-0.008267282137188308,"86":-0.03677394981107935,"87":0.07605375562082739,"88":-0.18376310044161404,"89":0.06094193823632528,"90":-0.08509799646731653,"91":0.044356013236746185,"92":0.05397647502491177,"93":-0.1834685594680874,"94":0.020157369555726917,"95":0.0969963020662725,"96":-0.14397028239261597,"97":-0.05929657363456583,"98":-0.1382410171506548,"99":-0.22251332339007904,"100":0.010112353621039518,"101":0.07199133851585059,"102":-0.19086168528501854,"103":-0.0007677984964223945,"104":0.06555631913016029,"105":0.07486837314204085,"106":0.2572889520915572,"107":-0.06043851254820107,"108":-0.19305771197151322,"109":-0.015811610403428922,"110":-0.006280339141357651,"111":-0.006972697337525021,"112":0.06520205741347677,"113":0.006760303164575204,"114":0.08391260759838524,"115":-0.10541958278675617,"116":-0.07537551825226359,"117":-0.15402219277179552,"118":0.1956546598534693,"119":-0.08525576800007553,"120":-0.11789528336259536,"121":0.09068560889020959,"122":-0.014701636550269626,"123":0.13532111068147676,"124":-0.0063053966053885635,"125":-0.21991171829173844,"126":-0.08912159516433403,"127":0.16484329001383002,"128":-0.11770598970085393,"129":0.08429029464292528,"130":-0.16961893701106978,"131":0.11870522960439939,"132":-0.10249627725613804,"133":-0.11526330288245994,"134":-0.14691763838623945,"135":0.012283492157120617,"136":-0.0945995765721419,"137":-0.29901667676750027,"138":0.005942191011527348,"139":-0.18965778129202093,"140":0.019361642530670166,"141":0.09929100723520765,"142":0.18720730356911872,"143":-0.20289975313515485,"144":0.24418490405658502,"145":0.07669993749027516,"146":0.1621079590326944,"147":-0.12829548236214486,"148":-0.008155880305524887,"149":0.00947040268714036,"150":0.13404504523228486,"151":-0.08044113450015773,"152":0.08472141489215318,"153":0.05599310004686978,"154":0.09250587846479263,"155":-0.0502782316458032,"156":-0.046319853582423104,"157":0.1391142582628309,"158":0.25737547298874197,"159":-0.12721089303090521,"160":-0.09691232580820247,"161":-0.05475209566004987,"162":-0.11033810602039694,"163":-0.1297552764384848,"164":-0.06698038652363662,"165":-0.1917534636701876,"166":-0.08414588662188423,"167":0.06129143470833077,"168":-0.1952036876770467,"169":-0.24927404387899368,"170":-0.1855088625825565,"171":-0.1108052958153525,"172":0.11412015180959152,"173":0.0889365386530102,"174":-0.16197631521783545,"175":0.04326236650413568,"176":0.04981903704976053,"177":-0.012632338547206575,"178":0.18602722867957847,"179":-0.16281473616841202,"180":-0.08279215292308398,"181":0.15167683420476338,"182":0.2867746967088861,"183":-0.09783796865433032,"184":0.15276740614078338,"185":-0.09221552156288032,"186":0.09227505225708352,"187":-0.05234270679249022,"188":-0.06806624045116393,"189":0.12303367626544608,"190":0.31534725031192756,"191":0.06069779326479001,"192":0.0068840637043806625,"193":0.03610300789584631,"194":0.25146686883371233,"195":0.033956367553438734,"196":0.11282402950536856,"197":0.011400393476493782,"198":0.13157619278081784,"199":-0.09088790509467952}},{"sx":5,"sy":5,"depth":8,"w":{"0":0.03469019800706707,"1":-0.12174652689747929,"2":-0.004836875659417087,"3":-0.05957485122202235,"4":0.004056119144077727,"5":-0.07463592520421626,"6":0.027633303376465763,"7":-0.002739555131632721,"8":0.018364456513769573,"9":-0.0628611599870036,"10":-0.0026168481280063756,"11":0.09854264196063339,"12":-0.08810874695990235,"13":-0.03521004582424198,"14":-0.1857904846447793,"15":-0.02162955926267541,"16":0.012640761244894941,"17":-0.0708334438721886,"18":-0.023089211122796393,"19":0.03665399165417405,"20":-0.08409176398002667,"21":-0.1552023101426003,"22":-0.2420716520247399,"23":0.024280769505583697,"24":-0.015122324111703733,"25":-0.05951713184520077,"26":0.0297178371425912,"27":0.006189160344478211,"28":-0.082022136368488,"29":0.1365919675487435,"30":0.12465589022015394,"31":-0.10297889629177563,"32":0.06103296765254185,"33":0.017780481250128946,"34":0.025873932820650942,"35":0.050851323203658275,"36":-0.007968414401979583,"37":0.09825001255641198,"38":0.14168080604782352,"39":0.0008559162917689933,"40":0.018021405263974263,"41":0.012869029083559521,"42":-0.02793932866506328,"43":0.04989303989906516,"44":-0.0010048630092544608,"45":-0.07011017460775333,"46":-0.0067281310284678306,"47":0.08279460180425173,"48":-0.06918704242328427,"49":0.04610939032228478,"50":-0.1257260122821783,"51":-0.007971242239984438,"52":-0.1108252079489508,"53":-0.1499566393030864,"54":-0.1415830876670013,"55":0.08650839234386448,"56":-0.14007937400359502,"57":-0.06667989195281161,"58":-0.029972171820245024,"59":-0.0504761510476298,"60":-0.12114049200896722,"61":0.11147104555239169,"62":-0.11806186421899989,"63":0.05682060905689253,"64":0.22025432244087162,"65":-0.0801243682647068,"66":0.22451620142947795,"67":-0.0019943116039273395,"68":-0.08251289364802777,"69":-0.06634598316074693,"70":0.22848287731323716,"71":0.0009840325468331683,"72":-0.12760451134941111,"73":0.02863907550433782,"74":0.15043766420762747,"75":0.009027307209247937,"76":0.12330694025937075,"77":-0.17344651161214233,"78":0.2061066921296492,"79":-0.07119643330700731,"80":-0.06427648714212278,"81":-0.11876954223828372,"82":-0.11486088472139713,"83":-0.06500120983038941,"84":0.025738637260540514,"85":-0.13518164724741,"86":-0.21419913936517146,"87":-0.040227049196073505,"88":-0.28925622724748123,"89":-0.0955063537056906,"90":-0.02023612054338983,"91":-0.013228990516095815,"92":-0.08057833170632743,"93":0.010961597093961587,"94":-0.08218867092724695,"95":0.11806020529924069,"96":-0.03176528577159114,"97":-0.15801501882731586,"98":0.11309642300800618,"99":-0.14309197501104207,"100":0.06284176725505378,"101":0.026475971684062828,"102":-0.10723355185897156,"103":-0.02457097642908439,"104":0.04183392004223354,"105":-0.08257408286155829,"106":0.18350592444544422,"107":-0.010804961274661027,"108":-0.20084402746569893,"109":-0.06909512901881715,"110":0.20738741088293783,"111":-0.04853173837005691,"112":-0.015749742843390563,"113":0.0887804000552832,"114":-0.09674519934690273,"115":0.08177427364137814,"116":-0.020519112688461873,"117":-0.09118998598009632,"118":0.13273400083369152,"119":0.037829048875769176,"120":0.04257244658323754,"121":-0.07860160569907608,"122":0.06314971268508167,"123":0.03905355924031834,"124":-0.14720845677052125,"125":-0.14668974730818704,"126":-0.06738826433085465,"127":-0.08001478455997953,"128":-0.011922942900168522,"129":-0.14602870487570033,"130":0.10450108893077494,"131":-0.06896688152474464,"132":-0.13434282675265463,"133":0.021231997620556102,"134":0.011263774181729993,"135":-0.026432530450884513,"136":0.02719597521904672,"137":0.16242065617429707,"138":0.18654493314298953,"139":-0.18927463877268202,"140":-0.026899825505770365,"141":0.05463597961820278,"142":0.17724243342281756,"143":-0.037626296693362336,"144":0.025324826038217205,"145":0.04486435207628031,"146":0.16831403672721607,"147":0.056405725406475475,"148":-0.04346917167362383,"149":0.06313092101019964,"150":0.22163017309490624,"151":0.0006427898429172801,"152":0.03446138841053433,"153":-0.08784998639274119,"154":-0.13451272771192585,"155":0.10734819144344647,"156":-0.09404051666130864,"157":-0.03204727236243424,"158":-0.10125858827965065,"159":-0.07239515254565987,"160":0.03146865876170919,"161":-0.08661677282485793,"162":0.004570820560967782,"163":0.0855743839991907,"164":-0.08374867714343955,"165":-0.027892403620406417,"166":0.02313427448016847,"167":-0.16595257663259924,"168":-0.024187373564983624,"169":0.0021160273363181395,"170":0.0788761884227735,"171":-0.09247860883638465,"172":-0.14283553145269212,"173":-0.02353939669224214,"174":0.19553581457903876,"175":-0.022936190527002923,"176":0.0013306260464069609,"177":0.07160348725367,"178":0.08150097617977357,"179":-0.10395431362035885,"180":0.044293070889098486,"181":0.06647220235450906,"182":0.13772691620390617,"183":0.06020019189800999,"184":-0.12255574501512423,"185":-0.05316928734374038,"186":-0.14472373941527375,"187":0.07316609793851883,"188":-0.1346463718983159,"189":0.06551741440881828,"190":0.07905471965920938,"191":-0.04991707329906528,"192":-0.09507323392847004,"193":-0.12034333385643256,"194":-0.0454636090439733,"195":-0.08457175688414172,"196":-0.1520869513229463,"197":-0.08286142834525409,"198":-0.2579119028453794,"199":-0.15437450630850438}},{"sx":5,"sy":5,"depth":8,"w":{"0":-0.13764768781084755,"1":-0.031831393131809896,"2":0.07732461682579138,"3":0.11190931907698451,"4":0.08799207436975423,"5":-0.025653515956810514,"6":-0.052556277870624696,"7":-0.014997599858346283,"8":0.04408184030392406,"9":-0.0240850748627669,"10":0.018301867459147286,"11":-0.105759072538895,"12":0.08824635090161313,"13":0.06218064289985629,"14":0.144785801515158,"15":-0.11090657018684309,"16":0.1224345165873645,"17":-0.06857680128728527,"18":0.021645334126552396,"19":0.03874656150443007,"20":-0.014720896737102782,"21":0.1562208942364788,"22":0.11947130376392004,"23":-0.12986132976299375,"24":0.05620723070029589,"25":-0.1687197712741088,"26":0.06629169680700799,"27":-0.092544931550054,"28":-0.041116939171284415,"29":0.0033739203292690746,"30":0.18884193407894498,"31":-0.19511965748843638,"32":-0.09273581951358238,"33":-0.025326807517954,"34":-0.0028897027611432067,"35":-0.06184767606800433,"36":0.020073547837264064,"37":0.021886581321161388,"38":-0.15120371044106165,"39":-0.12772698345569394,"40":-0.12107488309098322,"41":0.08958972841568674,"42":0.021656924930296455,"43":-0.06727998837509289,"44":-0.06663200030421815,"45":0.009182691937149502,"46":-0.15381206435045733,"47":-0.11184067417659144,"48":0.036897278662824495,"49":0.005002680606916834,"50":-0.12223136373461363,"51":-0.03896424904762861,"52":0.13122921228250822,"53":0.10669684329948825,"54":-0.1135644074483231,"55":-0.07114657128695817,"56":0.07870382507559204,"57":0.0561742775428737,"58":-0.046752286874061424,"59":-0.03157083859529622,"60":0.07178224585977859,"61":0.22806721702290159,"62":-0.093351583608569,"63":-0.01875158779587417,"64":0.2423010686563121,"65":-0.2757797484453291,"66":-0.03911084687841505,"67":0.17229263003906864,"68":0.017420962536218346,"69":0.2458072573862676,"70":0.02109306624202314,"71":0.10821887246587573,"72":-0.10469704390602069,"73":-0.11298477336980689,"74":-0.11016717456431079,"75":-0.027051495100411563,"76":-0.17716418401248757,"77":0.275854273881177,"78":-0.025321750295853682,"79":-0.1609118493900693,"80":0.00696561503588651,"81":0.09239920569701231,"82":0.001944635043110186,"83":-0.07493675623944594,"84":-0.10710731794996953,"85":-0.045520787250143954,"86":-0.022709567745751655,"87":0.042438720070321734,"88":0.023003429340888514,"89":0.09799323808336717,"90":0.04230144794828542,"91":-0.027024805149678796,"92":0.06416291346423797,"93":-0.05813928803038809,"94":0.03117182951302673,"95":-0.023737857998046674,"96":-0.23269675974843868,"97":-0.007282261451845485,"98":-0.017991247876661426,"99":-0.03758338391784402,"100":0.12411504372825773,"101":-0.10811675681154329,"102":-0.060746737976153514,"103":-0.14127649164337752,"104":0.24203289051769916,"105":0.03214943436992072,"106":0.031877857955443074,"107":0.05813228829775441,"108":0.141666297113092,"109":0.2483022231642975,"110":-0.02718280764679697,"111":-0.16170371764319072,"112":0.26488007960929993,"113":-0.2878918614105245,"114":0.2543343469761167,"115":-0.03800823843280539,"116":0.07834407601069253,"117":0.33466203049552484,"118":0.15227646729935493,"119":0.008918889815419287,"120":-0.045074331902509736,"121":-0.01758414268678224,"122":-0.03199766017154868,"123":-0.07551387675317936,"124":0.09423039038215976,"125":0.039780402530549305,"126":-0.040273325952403044,"127":0.11259842542232222,"128":0.019252580765955606,"129":-0.02598718070469172,"130":0.003124554026381424,"131":-0.08092177541212899,"132":0.10580723335835902,"133":-0.057014081297896625,"134":-0.04573079284711601,"135":-0.14489511059844604,"136":-0.012362685857463557,"137":-0.1632610854957009,"138":-0.08464866310917522,"139":0.06835244363050834,"140":-0.11209341288571935,"141":-0.16640459942234045,"142":-0.06802040937545452,"143":0.06253572865816137,"144":0.030708601460841735,"145":-0.0018011746364874732,"146":0.10302277613374494,"147":-0.15627846869443543,"148":-0.0741510266777029,"149":0.06410721441715288,"150":0.06999287617280403,"151":0.03277799411199857,"152":0.08184041992818067,"153":-0.036402524129779096,"154":0.3147289094826438,"155":0.018008229975391362,"156":0.02907603701029947,"157":0.09313293697294803,"158":0.18809938867434506,"159":-0.1440960667205739,"160":0.06758137701913537,"161":-0.03539839140307332,"162":0.06087015624421208,"163":-0.10813697433763982,"164":-0.035748592155622066,"165":-0.12276072734055467,"166":-0.12110823613069843,"167":-0.22246587176545332,"168":0.01916148790980486,"169":-0.15131492381189746,"170":0.05793027862889009,"171":-0.162745759196122,"172":-0.06631480130864532,"173":-0.10734658410045718,"174":0.07545639721428544,"175":-0.029916580515566137,"176":0.028151641910419082,"177":-0.07093259062425486,"178":0.021314089114756324,"179":-0.0786425894340232,"180":-0.04649405507880477,"181":-0.09504059749478098,"182":0.14532209732715173,"183":-0.01721054819690391,"184":-0.055759901017183706,"185":-0.14027725574043767,"186":0.10911640859050434,"187":-0.08235089145734045,"188":-0.1454405110210949,"189":0.061883582457028,"190":0.10791401948753584,"191":-0.20075603777578552,"192":0.06147502034913273,"193":-0.08175916267399926,"194":0.2741537887432018,"195":-0.05922972476599744,"196":-0.08770150032961599,"197":0.04555937529298253,"198":0.2295918074932323,"199":-0.06097128793697877}}],"biases":{"sx":1,"sy":1,"depth":16,"w":{"0":0.025459179617897794,"1":0.09693205007745785,"2":0.024836006168962057,"3":0.07247913268831273,"4":0.02854246247756355,"5":0.0539465655651234,"6":0.08291809165832312,"7":0.044611992986558664,"8":0.05454247955351459,"9":0.033699608425638274,"10":0.07832578977787209,"11":0.07766544985448869,"12":0.06599452982209571,"13":0.12241250001151283,"14":0.08182762914569022,"15":0.04546404798717612}}},{"out_depth":16,"out_sx":12,"out_sy":12,"layer_type":"relu"},{"sx":3,"sy":3,"stride":3,"in_depth":16,"out_depth":16,"out_sx":4,"out_sy":4,"layer_type":"pool","pad":0},{"out_depth":10,"out_sx":1,"out_sy":1,"layer_type":"fc","num_inputs":256,"l1_decay_mul":0,"l2_decay_mul":1,"filters":[{"sx":1,"sy":1,"depth":256,"w":{"0":-0.021502182600383862,"1":-0.10573807108406752,"2":-0.0017882770837455626,"3":-0.05667268489253826,"4":-0.045330595264061725,"5":0.020260892144134696,"6":0.038309565727821814,"7":0.026400214242223455,"8":0.12309855651696973,"9":-0.0014102562098535784,"10":0.030115480725541512,"11":-0.08416114652036115,"12":-0.09134284237197786,"13":-0.006013868835773334,"14":0.03784777965639987,"15":0.06949810235089689,"16":0.11033451961577471,"17":0.10041994552944469,"18":-0.024246027817977994,"19":0.04905090737422429,"20":0.00498751912760439,"21":0.14828572724319383,"22":-0.005895377598109085,"23":-0.055874892984966465,"24":0.019205100947812505,"25":-0.012038244083804238,"26":0.00554453789171771,"27":-0.13196956308886065,"28":0.06399390466964491,"29":0.014698116794020338,"30":0.007801764418510916,"31":0.04323938708836476,"32":-0.08662448458141148,"33":0.12429435067421797,"34":-0.078713622807223,"35":-0.013683274654219108,"36":0.034603516450949175,"37":0.056736734370103625,"38":-0.08789463435642872,"39":0.10596662761541079,"40":-0.09872712809798598,"41":-0.07214827980566944,"42":-0.032196707111695144,"43":-0.02690076153227687,"44":-0.006971735192616295,"45":0.0547989260416861,"46":0.06980482260884285,"47":0.07086477511837631,"48":-0.07649923058802229,"49":0.010634222059196353,"50":-0.14335894824696302,"51":-0.06980972223917108,"52":-0.01753374941126365,"53":-0.1658313404990266,"54":-0.033542414223877035,"55":-0.07778715386384434,"56":-0.21498875871746842,"57":-0.021517729347077182,"58":-0.030889341084662965,"59":-0.012361956366499036,"60":0.036543968689265606,"61":0.000602794497654575,"62":0.008152026658139527,"63":-0.01884697998350926,"64":-0.04045063635591663,"65":-0.003943958483496755,"66":-0.12493656091661466,"67":-0.10184509348215481,"68":-0.007192822057122027,"69":-0.15573029764147553,"70":0.01466168309758656,"71":-0.06586354796515947,"72":0.05852071553746465,"73":-0.10893777316912336,"74":-0.01280985999119158,"75":-0.06650938083994971,"76":0.02107212847798867,"77":0.044167613266605246,"78":0.05708713591219286,"79":0.03185175947332736,"80":-0.18069637232002927,"81":0.03399832663012225,"82":-0.03625243588672974,"83":-0.09035766360827138,"84":-0.029421478101789283,"85":0.10872576559944237,"86":0.08796136489562602,"87":-0.006205727585300714,"88":0.04017700407559825,"89":-0.0034608460558829793,"90":0.04021004503533399,"91":0.030014555044370984,"92":-0.017865332110712243,"93":0.018015552075663098,"94":0.019171015173346444,"95":0.00929293582849967,"96":0.016441371330632937,"97":0.07320084260400858,"98":0.12494235171067213,"99":-0.05222203156441968,"100":-0.10952188054645016,"101":-0.08745984792011652,"102":-0.11355577601086951,"103":-0.011114210420148133,"104":-0.08553599005670383,"105":0.00552502125842785,"106":0.029576111756699476,"107":0.016653710869991196,"108":0.03880894069928524,"109":-0.1467825172818268,"110":-0.08668861422087774,"111":0.05896820213461454,"112":-0.039259394268831876,"113":0.006268223692482513,"114":-0.0418130604787558,"115":0.022820300711830475,"116":-0.07038703040619601,"117":0.07752105218861262,"118":-0.1169976467400742,"119":-0.006897271201234298,"120":0.06514911567369015,"121":-0.049126687453274316,"122":-0.09212205618592897,"123":0.03671722445598573,"124":0.12255401112838225,"125":0.0730544670516551,"126":-0.13799393792728523,"127":0.052934549464085566,"128":-0.04937265385163534,"129":-0.008983803756680973,"130":-0.19069642671034076,"131":0.03382844309082896,"132":0.03195139613778747,"133":-0.012536483038872307,"134":0.013077835368480546,"135":-0.011880259072791227,"136":0.1267016374620627,"137":-0.048208181288298076,"138":0.031227878370194376,"139":-0.023232266714968357,"140":-0.022602122738944692,"141":0.045970830271296,"142":0.06445364991388013,"143":0.10767789960226934,"144":-0.13347842290593254,"145":-0.18443030529288584,"146":-0.024256267105536754,"147":-0.1251388888629144,"148":-0.08702053706988834,"149":-0.1111421405181387,"150":0.1266864865532694,"151":0.1094208483348885,"152":0.046403820610414155,"153":-0.06495848237809392,"154":0.1388884596091136,"155":0.02963493884379545,"156":-0.20481732329248464,"157":-0.027869875477688173,"158":0.20356903939618934,"159":-0.15133845857137998,"160":-0.029783044238205072,"161":-0.15749325709445663,"162":0.051857244013380606,"163":-0.10641713116124774,"164":-0.08208758717957362,"165":-0.31738741053089514,"166":-0.025851885682124397,"167":0.04660437083012856,"168":-0.048552349665845665,"169":-0.10144746417584616,"170":0.025035988814285655,"171":0.030318108052900576,"172":-0.06031945784122546,"173":-0.0512151613195152,"174":0.03232248915575902,"175":-0.04422360412670287,"176":0.1850377000407459,"177":-0.12742597384502022,"178":-0.08435380774241256,"179":0.01715179009384872,"180":0.018491777982378135,"181":-0.1003300106604092,"182":-0.07419312832569093,"183":0.03373922869726362,"184":0.002387945107747465,"185":-0.09034164893815474,"186":-0.012817002350824077,"187":0.059618228547133945,"188":0.09848436966271205,"189":0.16218216120113263,"190":0.05753885274086293,"191":0.13781738874962743,"192":0.0038614593012542605,"193":-0.11536260047143984,"194":-0.044366289698850314,"195":0.01842612213680291,"196":0.1469998872547743,"197":-0.04096935798303736,"198":0.006691851683544771,"199":0.0074114918899102124,"200":0.011501067391051993,"201":-0.060695951580267235,"202":-0.06060442679145987,"203":-0.036237239932880125,"204":0.031582333379585124,"205":-0.02628113018067097,"206":0.12382137629281295,"207":0.02865477604570172,"208":0.1333677281232478,"209":0.08417158113889943,"210":0.010323400236007392,"211":0.17622228736963294,"212":0.00596728319929262,"213":-0.0064505764351021075,"214":-0.1226439037381461,"215":0.05734944145647975,"216":0.008631754355444797,"217":-0.060170274938939415,"218":-0.07721460246909073,"219":-0.042471009296616756,"220":0.16592798384572927,"221":0.13041193915614102,"222":0.030234035732119618,"223":0.041641375313938626,"224":-0.04909576607898923,"225":0.030454119964235058,"226":-0.03702906048508701,"227":-0.12295919818291919,"228":-0.044150515682136446,"229":0.11324124166155605,"230":-0.027399279102590466,"231":-0.029081762592215392,"232":0.10036741035117236,"233":-0.03851562573728985,"234":0.15906162111570576,"235":-0.1571177020491326,"236":-0.23365810373775414,"237":-0.21157499261396717,"238":0.06821265445756179,"239":-0.16995666863549233,"240":-0.10439270084908658,"241":-0.08484610471214513,"242":0.07127515837622071,"243":-0.059316784206148686,"244":-0.10753626356999307,"245":-0.07691269375227315,"246":0.14528494286425847,"247":-0.01117298651936507,"248":-0.0927965035196649,"249":-0.08181882287853491,"250":-0.13583590810231258,"251":0.1274104178227235,"252":-0.059698420519385044,"253":-0.002297147566509085,"254":0.07184777720779706,"255":-0.029732347194817137}},{"sx":1,"sy":1,"depth":256,"w":{"0":0.05470055320565808,"1":-0.03370616196773144,"2":0.04758076368741496,"3":0.016073527343807213,"4":0.09085061473230163,"5":0.07757813169939526,"6":0.01751486672895847,"7":0.027656213151386458,"8":0.03255437473052279,"9":0.06944613382473991,"10":-0.013222449961204481,"11":-0.0005974893471761643,"12":-0.09991279066013457,"13":-0.025327238007356277,"14":-0.017596190107097533,"15":-0.008003785096266704,"16":-0.06120115807066084,"17":-0.008298652429338143,"18":0.0032306658341488383,"19":0.04948508135393209,"20":0.12631898517469456,"21":0.04335735668492834,"22":0.029076287393198758,"23":0.06858074201593432,"24":-0.07016969510711889,"25":0.012724603883603112,"26":-0.08463866011118348,"27":0.07984904601014818,"28":0.022433240566883457,"29":-0.16607048066115745,"30":0.044137632341616814,"31":0.12282467752893635,"32":-0.004887826408228858,"33":0.04520221336463717,"34":-0.037604666608939595,"35":0.1053098728114118,"36":0.01634446562722759,"37":-0.04821142561741299,"38":0.16272823300184935,"39":-0.040267868763649496,"40":0.036794834385499395,"41":0.10473766129895631,"42":0.08913523868794856,"43":0.25215691108154403,"44":0.16742106507431284,"45":0.14916680651538355,"46":-0.015016704132228387,"47":0.09323980320013951,"48":-0.11301817614765555,"49":-0.11064003247410742,"50":0.03247197958895662,"51":0.1876422821295439,"52":0.09024142988616965,"53":-0.03651702801099246,"54":0.09492371530358668,"55":-0.07280511618329662,"56":0.039620381367931994,"57":-0.04963666004312251,"58":0.10532396382387753,"59":0.09394600136155791,"60":0.025455721791698017,"61":0.10725111331133468,"62":0.06254345881781932,"63":-0.05824898285257389,"64":-0.02573848120567586,"65":0.011593255112221135,"66":-0.03461438885790423,"67":0.055700728338694765,"68":-0.08613470635725083,"69":-0.0966306399840359,"70":0.0693021773114469,"71":0.08655209825824954,"72":0.021634261501184165,"73":-0.1687217391833175,"74":0.004180224387915728,"75":0.04109832376262472,"76":-0.03566746042792703,"77":-0.09273525821969465,"78":-0.007801242200486222,"79":-0.21324334201516323,"80":-0.019716360776669765,"81":-0.08052555269729261,"82":0.0010250006170235161,"83":-0.04142205771525553,"84":0.050858469813914856,"85":-0.22163856837838974,"86":-0.12502626749561488,